100 100
0 -0.000120452605 0.0021158154 -0.0027101021 -0.0014704149 -0.0038819306 -0.0042626336 -0.004906567 0.0043271584 -0.0039613037 0.0027179387 0.00035374332 0.0007225261 -0.0041326275 0.0019657188 -0.004933236 -0.00016628206 -0.00040670997 -0.004585141 -0.0014132899 0.0027255397 0.0028505744 0.0043178042 -0.0023229092 -0.00036803726 -0.003316822 0.0011475296 0.00048637018 -0.0036298917 0.0041517885 -0.0049527264 -0.0024792706 -0.0031535015 -0.0027073557 0.004330934 -0.004237191 -0.0022882551 -0.0014911909 -0.003459354 -0.0039120195 -0.0019676047 0.0045523252 -0.0047178613 0.003972318 -0.0023428088 0.00032860972 0.0011592126 0.002723387 0.0039688693 -0.00094477274 0.0043479363 -0.0018234449 -0.00042666914 -0.0019958245 -0.002739886 -0.0020318078 0.0028070319 -0.0014609932 0.0026999437 -0.0023710525 0.0010436578 -0.0048569194 -0.00041008228 -0.0018567776 0.0009670961 0.0015422935 -0.0019274771 0.0030418653 0.003803934 -0.0014293045 -0.0042426037 0.0008685738 0.0028037392 -0.00020943629 -0.0031760554 -0.004575483 -0.004979156 -0.0007608328 0.004480674 -0.0034032674 0.0009035319 -0.0021600414 -0.0022386014 0.0022325334 -0.003384884 -0.0023284876 -0.0015427822 0.0046998197 -0.0036763947 -0.00055253645 -0.00087900413 -0.0039548106 -0.0020155448 -0.002507015 0.004781316 0.0014200569 0.0033046314 0.003727423 -0.0034622531 -0.0024608176 -0.0005160142
1 0.00060829334 0.003049518 0.0020056213 0.00039662188 -0.0049767136 1.8579885e-05 -0.0016040676 0.0012978548 -0.0027822321 -0.0012418716 -0.0014661329 -0.004510957 -0.0034179431 0.0047442988 0.0038359454 0.0028836485 0.0026649726 0.0047254562 -0.002674021 0.0027990444 -0.0011644978 7.06967e-05 -0.0013099099 0.0017445507 -0.001266948 -0.00046782987 0.0030539073 -0.0048486907 0.003346447 0.0003572153 -0.003581216 -0.0009914534 0.003294997 -0.00057654874 -0.0021834641 -0.0027936595 0.0013067257 -0.0033919888 0.0013385359 0.0039133597 0.00023915246 0.002298885 0.00036446052 -0.003862081 4.442036e-05 -0.0014726226 0.004504077 0.0004662131 -0.0030725766 2.8125942e-07 0.002015735 0.0014410359 0.003338351 0.0048789866 -0.0007924028 -0.0008735792 -0.001706941 0.0016562259 0.004737051 0.00417767 0.0036885068 -0.0016380858 0.002345257 -0.0006917836 -0.0016670299 -0.0021506392 0.0037756842 0.0002605375 0.0023745168 -0.0042286837 -0.0008340627 0.0037878295 0.0015456635 0.0015823757 -0.0027779357 -0.004682092 0.004984104 -0.0021180445 0.0030539557 0.0020384924 0.0013585086 -0.0014349658 0.0026416671 -0.00026572542 -0.0042456696 -0.00044073816 0.00044690305 0.0026877844 0.004627575 0.0031592865 -0.00416424 0.004265895 -0.0021639578 0.0042798687 0.0030262126 0.0023298967 0.00046040956 -0.004498031 0.0029575406 -0.0019322901
2 0.0022764532 -0.002370996 -0.0031060618 0.0014120913 0.0041654846 0.0019192565 -0.0018723626 -0.0043334025 -0.0032770853 -0.0025714391 0.0033013308 -0.0023204582 -0.0013186091 0.0016576992 -0.003777977 -0.00087458175 -0.0038593179 0.00070161745 0.004560019 -0.0013684963 0.002814388 0.0014004745 -0.0029500192 -0.00087124156 0.0037331823 -0.004249441 -0.00036461372 -0.0041087978 0.00037368527 0.0020290664 -0.0032263482 -0.0004484146 0.0013659196 -0.003275571 0.004203193 0.0019198824 -0.0024925822 -0.004102376 0.0037945956 0.0032901634 -0.001079299 -0.004678803 0.00023564463 0.004067664 -0.003984351 0.0035392651 -0.0010336917 0.004019088 0.0004751389 -0.00043694908 -0.004190251 -0.0021382398 0.0038256552 0.0027232114 0.0027237795 0.0017414559 -0.0034856033 0.003265975 -0.0048678205 0.00047930516 0.0017398451 0.0012400537 0.00037167268 0.003135861 0.0048041977 0.0025443481 0.0039914856 0.0032940088 0.002542172 -0.0017816036 0.003182819 -0.002338025 -0.0019351898 -2.5808346e-05 0.0035979617 -0.0043080896 0.0018629278 0.0030132234 0.0013528066 0.002082463 0.00081119547 0.004072724 -0.0041871695 0.00198862 -0.003167315 0.0011618845 0.00022065174 -0.0028982013 0.0012302329 -0.001924712 0.0041272026 -0.0045352173 -0.0038068467 -0.0014632731 -0.0043540187 0.00374379 -0.0024845318 0.0008699368 -0.002179107 -0.0039176513
3 0.0005638371 -0.0008865632 0.00023702066 -0.002559104 -0.0026419973 0.0039237877 0.0023684949 -0.0031909423 -0.0019450826 -0.0015307306 0.0029810946 -0.004477933 0.004913885 0.0037105074 0.0048550265 0.0037572775 -0.004817599 -0.0002869307 0.004018778 -0.004174169 0.0028147707 -0.00027953787 0.0029129973 0.004573784 0.00081820507 0.004941577 -0.00016524363 0.0047815936 0.0003267713 0.0014087283 -0.0032531875 -0.0042912494 0.00035356265 0.001021855 -9.634392e-05 9.721611e-06 0.0007396536 -0.0018844001 0.0028308881 0.003364223 0.0012617498 0.0026027793 -0.0031239311 -0.0047162347 -0.0014427453 0.002723311 -0.003450402 3.9564446e-05 0.0028063287 -0.0035552203 0.0009922357 -0.0006808243 0.004377895 0.0011276789 -0.0046208035 0.0009420514 0.0016763723 0.0036449088 0.003926945 -0.0023341184 0.0031374004 0.004589718 -0.0011078089 -0.0012284117 0.0017639222 0.0049602557 -0.0008416204 -0.004219443 0.000668786 0.0039226273 0.00317764 -0.0014220441 -0.004508685 0.0013867728 0.0049118856 -0.004644721 -0.004825733 -0.0030014706 0.0011501703 -0.000999575 0.0012658495 0.0019002906 0.003655444 -0.0026568286 -0.003432232 0.00028756494 0.0028716624 0.00036705565 0.002007869 0.00023579877 0.0038471473 -0.004389789 0.00077751465 -0.0042786566 0.0019269991 0.0003564274 0.0041916855 -0.0004393328 0.0022671395 -0.0006663101
4 -0.00459583 -0.0040381188 0.004255252 0.0038355468 0.00187016 0.0035221297 -0.0038092327 0.0008980287 0.0032036956 0.00088825356 -0.0014409048 0.0029270928 0.004478627 0.004076232 0.004101484 -0.00034701265 0.0040931925 -0.001702317 -0.004812642 0.0015196116 0.0035988986 0.004915924 -0.0007577478 -0.0018877499 -0.004954065 -0.003525313 -0.0019510793 9.3027484e-05 0.003508865 0.0016475222 -0.00020359224 -0.0021640724 -0.0016473865 0.0039097667 0.0010614698 -0.000688727 0.0012546224 -0.003502869 0.00088199135 -0.0015160381 -0.0028600262 0.0029104743 0.0037771007 0.0043234304 -0.0007306407 0.0024171048 -0.00071363384 0.004542974 0.0041255765 0.0030479347 0.0015417337 -0.0014223885 -0.004338437 -0.0027315288 0.0016868608 -0.0035877312 -0.00032325368 0.003305439 -0.00070408685 0.0037339209 -0.0035968225 0.003307487 0.0030832049 0.0037483117 -0.0038342737 -0.00084462995 0.0022406857 -0.004355262 0.0024478189 0.0011466779 0.00011689402 0.0008761771 -0.0009852783 0.0006114752 -0.0007505808 0.001960509 0.003470065 -0.0033279872 -0.0018338126 -0.00078336056 -4.875427e-05 0.0010243165 0.0049380073 -0.0033027101 0.0034347614 -0.0049967836 0.0012549362 -0.0007019583 -0.0009197886 -0.0027061235 0.0049663456 -0.0031121694 -0.0011715286 -0.0023614555 0.0016874732 -0.0046229986 -0.0015763973 -0.004074458 -0.004082688 -0.00087017333
5 -0.001132983 -2.5453046e-06 -0.004245003 -0.0023543541 0.0007913648 0.0016119569 -0.0026359665 -0.0022376834 -0.0044272183 -0.0038450896 0.0007741838 -0.0007507736 0.003196245 -0.00057366444 -0.001779431 0.0011834139 -0.0010796934 -0.0031417685 -0.004195344 -0.0048804944 0.0036722543 0.0049946876 -0.0029776 0.0012900261 -0.0024854736 0.0012111198 0.00441086 -6.914139e-06 -0.002488194 0.0021995655 0.0039407387 0.0025722985 -0.0001499001 -0.002821818 0.004800183 0.0035725879 0.0014237515 -0.0027114574 0.0016842438 0.0037607923 0.002471731 0.00046924967 0.0009309561 -0.0007998375 -0.0027131473 0.0016390895 0.003991151 -0.0032264353 -0.0018103181 0.0038705403 0.0010301848 -0.0043868795 0.003952883 -0.00028963573 -0.0018378245 -0.004992136 0.0007661511 -0.0032387022 -0.0038568676 -0.0022869993 -0.0048403656 0.0006655492 -0.00030641677 0.0049550673 -0.0005850326 -0.0035067033 -0.0033024244 0.0004566894 -0.0034366476 -0.0031593512 0.0008462309 0.0029759817 0.0024233307 0.004816884 -0.0043330416 0.0048252363 0.0010819752 0.0022066925 -0.0011178255 0.00073893974 -0.0011199492 0.0022574323 -0.0015876591 0.0039935485 -0.0047189137 0.00071765855 0.004187228 0.0036677858 0.0029339958 -0.004614401 -0.0038091545 0.004854804 0.0022155093 -0.0011551846 -0.0048392443 -0.0048470665 0.0015443326 -0.0041797897 -0.0008423566 -0.0044373013
6 -0.0045609795 -0.0039894236 0.0027405182 -6.5048225e-05 -0.0030710427 0.0020692246 0.0027409117 0.00479565 0.0043051112 -0.0048190877 0.0041857846 -0.0047783214 -0.003400014 0.0014802637 -0.002007264 -0.0048629926 -0.0015536821 -0.004027853 -0.0044283587 -0.0024088041 0.0009798054 -0.00040335348 -0.0030173545 -0.00087748887 0.0017116456 -0.004466148 -0.004129959 0.0034026904 0.004841652 0.0010037874 -0.00041242596 -0.0031258094 -0.0027726484 0.004348345 -0.0034336727 0.0034450013 0.0029945597 0.00077182055 -0.0031107054 0.001244558 -0.0009903926 -0.004586825 0.0015451149 -0.0033617883 0.0009093536 -0.0033488474 -0.0034110616 -0.0049303076 0.0018044286 -0.0041150735 0.0037241383 -0.0035193234 -0.0026198928 -0.0032971972 -0.0042639063 -0.0006987802 -0.001189894 0.0048080906 -0.002101807 -0.0048092008 0.0020095771 0.0039001973 -0.00034130644 0.000221516 -0.0015182423 0.004026493 -0.0043959105 -0.004685866 0.0046262024 0.0012948113 0.0037671505 0.0024834434 -0.0017123348 -0.0036488734 0.002750107 -0.00110241 -0.0023339563 0.0026022648 0.0048381323 0.00398208 0.0018419256 -0.0011475086 -0.00027627684 0.0036588078 -0.0007788129 -0.00046342798 -0.0031286883 0.0004605502 0.003414913 -0.002748928 -0.0017150056 -0.0014620095 0.004517221 0.004497382 -0.004389416 -0.0017734079 0.0021375911 0.0035383115 -0.002175098 0.0025894041
7 0.0004585879 -0.0041193715 -0.0037859697 9.6492935e-05 -0.0016261821 -0.0036312304 0.004417572 0.00069288956 -0.00090285065 0.003732238 0.0021157493 0.000668698 0.0033490192 0.0038213152 0.00042772898 0.002805593 0.00070820795 0.0024934583 0.004996171 0.00028359098 0.0019956087 0.0018891175 -0.0034198998 -0.0032154208 -0.0004132064 -0.004916889 -0.001960656 0.0037611416 -0.0041961707 -0.0031200633 0.0049313474 0.0042994674 -0.0042996844 -0.00053360406 0.002731571 -0.0029233557 -0.0049430346 0.003879561 -0.004901474 -0.002481646 0.004371375 -0.004727571 -0.0015675563 -0.002289453 0.004004188 -0.0003557736 -0.001960017 0.003042357 -0.00083480915 0.004151657 -0.0018808907 -0.00036548218 0.0015868614 -0.0017376917 -0.000334776 -0.0033068734 -0.0025871515 0.0038659228 0.0023966385 0.004106219 -0.0032512448 0.0039747367 -0.0027541209 -0.0035003447 -0.0046518766 -0.00026944 0.004165383 0.0040931646 0.0029245513 0.0004972797 -0.0010920065 0.0024612527 -0.0010238844 0.0045862356 -0.0020619123 0.0035634832 0.002995139 -0.00086667156 0.00377509 0.004254044 -0.0031022835 -0.0035961014 -0.0045680897 -0.00019375142 -0.0025946414 -0.002515695 -0.0026857448 -0.0041831816 0.0010389071 -0.00030694297 0.0024653976 -0.004309525 -0.0009190636 0.0024828021 0.0041846735 -0.0014173638 -0.0014410347 0.004211315 0.0017355368 -0.0032667243
8 0.0044913404 -0.0025025052 0.0043756356 -0.0027937607 -0.0032976149 -0.0010168133 0.0023146383 0.0029902542 -0.004617763 0.00080136675 -0.0014818781 0.0016548862 -0.002630483 0.0037587518 -0.0017520804 0.00075455057 0.0024979687 -0.0016212498 0.0009469879 -0.0012463594 -0.0045580463 0.004592308 0.0017643799 0.0032601971 0.0010419358 -0.0019353812 0.0032697264 -0.0015678238 -0.0049976353 0.0025473284 0.0045752833 0.0015319013 0.0033175321 0.0033359174 -0.0018742376 0.0019179396 -0.001660903 0.0028688284 -0.003832358 -0.004818304 0.0017493772 -0.0010967052 -0.002115777 0.002813858 -0.0046023256 -0.003669999 0.0041157687 0.00048453454 -0.0022659325 -0.0040859194 0.0029382724 0.0018836353 0.0043312404 -0.003053429 -0.001071028 0.00018828548 -0.00079896394 -0.00022225315 0.0046648216 0.0022727451 0.0015378497 -0.0028701883 -0.0009671347 0.0034266599 0.0019750604 0.0014607916 -0.0036791372 0.00020803139 -0.004762164 -0.004802155 0.0023551178 -0.0014053499 -0.003156697 0.00041182293 -0.00056599965 -0.00025638053 -0.0030874782 0.0013359291 -0.00052686455 0.0016452675 0.002672833 0.001444695 -0.0013038474 -0.001959558 0.0026669214 0.0023708628 -0.00041628536 0.0044326764 0.0021234946 -0.0006840513 0.0011620196 -0.004063764 0.004536382 -0.002358126 0.0017749728 -0.0005229879 0.0030014748 0.0012259572 0.00069131795 -0.004852661
9 -0.0005192752 -0.0031031454 -0.0025870854 0.0022225827 0.004792504 0.0021819077 -0.0012243188 0.0018352349 -0.0032840185 -0.0028846841 -0.002179879 0.002590152 -0.0037586014 -0.0046547046 -0.00037231622 -0.002214752 0.00023594359 0.0036463225 -0.0016056991 0.0020756237 -0.0043433644 0.0034422604 0.0024308912 0.0028807167 -0.00014003739 -0.0014162916 0.00046064565 -0.0005755788 0.0029381672 0.0031227078 0.0018665004 0.0008478812 -0.00090641715 -0.0030361586 -0.003416329 -0.0047270344 0.0023811609 0.0029554535 -0.00057308376 0.0012457282 0.0038812347 -0.004899455 -0.0038229767 0.00095126824 0.0028276583 -0.004525159 -0.0014627255 0.0033605564 -0.0010362817 0.0008621728 0.0028610555 -0.004146557 0.0012761732 -0.0032009666 0.0017638556 -0.0030179948 -0.0041032583 0.0029494632 0.003168407 -0.0024657808 -0.0033384012 -0.0032085215 -0.002794892 -0.0017568087 -0.002495746 0.0023318068 -0.004710766 -0.0014381879 -0.0030220181 0.0022665947 -0.0003262437 -0.0022006189 -0.0026300906 0.0007354184 0.003529314 -0.0007941271 -0.004813804 0.0044867797 -0.0023236168 0.004951426 -0.0036179393 0.0011977362 0.0046983333 -7.585948e-05 0.0007700408 0.00070495345 0.0016193227 0.0037528845 -0.0015481901 0.002423416 0.0018112701 -0.002354638 -0.0025058382 -0.0028147346 0.0028429432 -0.00036668312 0.0016979082 -0.00063290354 0.0017877156 6.092945e-05
10 0.004862193 0.0012926171 0.00019863667 0.0041395947 0.0027936436 0.0029125586 -0.00355112 0.0018916791 -0.0031593805 -0.0003239382 0.004593227 0.0032939985 0.0047534844 0.000240108 0.0042189686 0.0033936491 0.004807355 0.003171117 -0.00167665 0.0042109666 -0.0017630798 -0.0007621879 -0.0042357687 0.0023987694 0.0023128674 -0.0038433266 0.0035201646 -0.0014503472 0.0021039555 0.0017835419 -0.004934128 -0.00010042684 0.0033530286 -0.0045403093 -0.0027112644 -0.002276424 0.0027519278 0.0025230506 -0.0037181554 0.0017852527 -0.004551152 0.0024391012 -0.0016047691 -0.0013908355 -0.0029152804 -0.0044163824 0.0012493241 -0.001633439 -0.004032011 0.0026511983 -0.0003100736 0.0042679124 -0.0013149821 0.0007584295 0.000714174 0.0017265789 0.0007948894 0.0019534528 0.0049485797 0.00338409 -0.0017912406 -0.003280822 0.0017897189 -0.0015834849 0.0005881144 -0.0030298322 0.0024058078 0.0034107193 0.003305139 0.0006718063 0.0021089772 0.00010766741 -0.0005091154 -0.0030966876 0.003918411 -0.004130242 -0.002823286 -0.0036139274 0.0048519457 -0.0033876013 0.0010324419 -0.00022201892 -0.0041256547 0.004341184 0.0041060764 -0.0024167872 0.003903837 -0.0014686806 0.0015563718 -0.004136822 0.0010380996 -0.0019664902 0.0039713467 0.004056398 0.0037575904 0.0017390153 0.00032652635 -0.0033060508 -0.004479338 -0.00341465
11 -0.001147799 -0.0019898457 -0.002215677 0.0025061052 0.0041858666 0.0033825384 -0.0022909427 0.002435401 -0.0047508054 0.0043976456 -0.0042782463 0.0039729048 -0.004211975 0.0020446647 -0.00260824 0.00030710362 -0.004015518 -0.0024585675 -0.0045402506 0.0031842748 0.0023062727 0.0027357088 0.0049252883 0.0004577227 0.0020142947 0.0030193822 -0.0030482728 -0.0010029636 -0.0011135554 -0.0036095905 -0.0018532812 -0.0047051255 0.0005525197 -0.0044440846 0.0006562006 0.0036059422 0.003948657 -0.0046697417 0.002144524 0.0038859677 -0.0038735336 -0.0022471612 -0.0022975218 0.0009827865 0.0044362107 0.00421282 0.0045297444 0.004410875 -0.004666702 0.0001913351 0.00010118261 0.0015240009 0.00035072025 -0.0026814502 -0.0027505867 -0.002530623 0.0019379216 -0.0017079203 0.0024497015 0.004012676 -0.00117095 -0.004919711 -0.002865464 -0.004792131 0.0022272272 -0.004243288 0.00010007201 0.0031102784 -0.0047659813 -3.9670616e-05 -0.0006922032 0.0016085147 -0.0012601095 0.0008175988 -0.0048958436 -0.0038785671 0.0033200523 0.00014169142 0.004780935 -0.0004916149 -0.0034372122 -0.004266392 0.0018491722 0.0046073413 0.0035376325 0.0033336785 -0.0014487081 0.004313905 -0.0026087433 -0.0028759055 -0.0032003163 -0.0003620847 0.002987625 0.002888361 -0.0021768392 0.0034889448 0.0026558382 -0.004151745 0.004525801 0.0007235785
12 0.0012481422 -0.0007686787 0.0030004093 -0.0037661146 -0.0043154825 -0.0031543653 0.0037934054 -0.0046572476 -0.0045142006 -0.0012700779 0.00017512077 -0.004968071 0.00071011716 0.0023159282 -0.003549528 0.0030708667 -0.0023190766 -0.00074092625 -0.0024553067 0.0037595592 0.0020459522 0.0024265465 -0.0033196372 -0.003173735 0.003123342 -0.0027033011 0.0004052841 -0.0018409938 -0.0029249287 -0.0027820228 0.0006557093 -0.0041752905 0.0028361399 0.0027483497 0.0027797879 -0.004324884 -0.0019394928 0.0026602698 0.0030684806 -0.002224403 0.0049789473 0.00397812 0.0032984987 0.0026253788 0.0045230044 0.0024858126 0.0039295554 0.0030715708 -0.001624627 -0.002464913 0.0026544607 -0.0027441387 -0.0038070034 0.0025876523 0.0031771464 -0.0019272459 -0.0031348974 -0.0010545277 -0.00038031302 -0.003933739 -0.0020308923 -0.0016681922 0.0019344077 -0.0020496172 -0.003108043 0.0026100534 -0.002591375 -0.003279187 0.0021167356 0.00015776046 0.0045413543 -0.002828794 0.001807664 -0.00020052446 -0.004731726 0.0034926673 -0.004248098 -0.00037291646 -0.004770115 -0.0014559776 -0.0031564254 0.0040254313 -0.004801567 0.0008635372 0.001212284 0.0018973607 0.0031427694 0.00042369263 -0.003099829 -0.0048844325 0.00016459823 -0.001605205 0.004749203 0.0010365401 0.000129438 0.00046456745 0.0047226762 0.0022368585 0.003217847 -0.0039729914
13 0.0025218497 0.0034689875 0.0024842648 -0.0022983705 -0.0035200357 0.00068862503 -0.0031180773 -0.0010048915 0.0027736346 -0.00068080146 0.0015399223 0.0013961424 -0.0025034617 -0.0046295095 0.0038154777 0.0040862057 -0.0030136693 0.0014993139 0.0006933124 -0.00030251313 0.004193156 -0.00049071293 -0.0026754998 -0.0023187655 -0.0034780721 0.003711897 -0.0016320478 0.0018900759 -0.0028891533 0.0016756165 0.0007401197 -0.003593686 -0.0012446283 -0.0014991099 -0.0010246173 -0.0045182426 -0.004003187 -0.00097573316 0.0008340734 0.0031439085 0.002080786 -0.0027225874 0.0003749067 0.0036499593 0.0010678922 -0.0023547793 -0.0021624134 0.0037060846 0.0036016162 0.002282369 0.004943805 0.0027633668 0.00063918065 -0.0040053553 0.0040625725 -0.0032182802 0.00023849588 0.0019388478 -0.001816625 -0.004228695 0.0028951587 0.0040432913 -0.0015695672 -0.0029845643 0.00061071105 0.0015276871 0.0007364531 -0.0002966635 -0.0045509627 0.0024647345 0.002285562 0.0037556607 0.0038194638 0.0009819618 0.00092518376 0.0005812533 3.8072467e-05 -0.0004713023 -0.004245495 0.0039356053 -0.0045060194 -0.0033820556 0.0009842203 0.0041950922 -0.0038345545 -0.00083127385 -0.0015181482 0.0035625668 -0.0031426698 0.0009375918 0.0042885393 -0.00011579972 0.0008865674 -0.0036581717 0.0028457744 0.0046190005 -0.0015864961 0.0017410917 0.00095973304 -0.0042155623
14 0.00041637616 -0.0038423222 0.003534154 -0.0010305084 -0.0022097914 0.00023571495 0.0025846004 0.0013449751 0.0049770977 0.0026931544 0.00019624131 0.004861051 0.0032730922 0.0015586298 0.0042115897 0.00081330305 0.004344765 -0.0047387257 0.003822418 -0.0029315173 -0.004552665 0.004347381 -0.00018280884 0.004545315 0.004621938 0.0046316916 0.0009836196 -0.0015557057 0.0024839975 -0.0048992666 -0.001820917 -0.0039999536 -0.0029384834 0.0018163491 0.004796801 0.0017293715 -0.0022885345 -0.0039312933 -0.0048064655 -0.002529584 -0.0011216868 -0.00043149432 -0.00039656227 -0.0013027883 0.0036742277 0.00063988334 -0.00324611 0.0041800365 -0.0014646321 0.002346767 0.0012231753 0.0009692055 0.0043402845 0.003227816 0.001134342 0.0043650344 -0.00109309 -0.00090230396 0.0029300386 -0.004879764 0.002267519 -0.0018444485 -0.000978562 -0.0014951788 -0.0048594354 -0.0022554647 0.00047346065 -0.0020428686 -0.0034863167 0.00083780475 0.001930024 -0.0012679845 0.0014071083 -0.004166341 0.0005652206 -0.0004922198 0.0046045436 -0.0015654403 -0.00342197 0.002602126 0.002123333 0.00115389 0.0012847343 0.0028710105 0.0011723344 -0.0013201153 0.00034593325 0.004847223 0.002887113 -0.003310909 0.0040261596 0.0028309682 0.0046144472 0.0012807427 0.0008628005 0.0037868014 0.0021065925 0.001003413 -0.00046572927 -0.0017002691
15 0.00010747928 0.0021148585 0.0034139324 0.0005645575 -0.004568482 -0.004205956 0.0048934454 -0.0022931725 0.004861541 -0.0046078125 -0.0024532157 -0.0009585195 -0.0023590885 0.0038321633 0.0045720767 -0.002801274 0.0012119538 0.0040494157 0.0043083085 -0.0030823564 -0.001527682 -0.0046911496 0.0031911116 0.003258164 0.0026648701 0.0032560285 0.0047174506 6.287452e-05 0.0033686468 0.004888336 0.004181276 -0.003264836 0.0043969247 -0.0035915119 -0.00020917458 -0.0030546729 0.001501923 -0.0029551524 0.0029134238 -0.0004973612 -0.0008206116 0.0036154995 0.0047820937 -0.0039410274 -0.0022411228 0.0026105647 0.0031651696 0.0024860138 0.0019608843 0.004312408 -0.0032593627 0.0035634926 -0.002536507 -2.6585069e-05 -0.0014499552 -0.0023680597 -0.0019152546 0.0014233477 -0.004034256 -0.00087865954 -0.0007359381 -0.0002083308 -0.0049648955 -0.004589748 -0.0030097174 0.0044439137 -0.004255875 -0.0038077247 0.00024085678 0.0019423156 -0.0014133346 -0.0037607818 -0.0010685492 -0.0037212986 -0.0022965013 -0.0011355977 0.004752227 -0.003058685 -0.0010204627 -0.0018678785 0.0039304597 -0.0043102633 0.0045145126 0.0026670913 -0.0028381383 -0.0047129146 -0.004908643 0.004928056 -0.004028815 0.0017703734 0.004098596 0.0029356703 0.0026088236 -0.0024728305 -0.0026839667 0.003143333 -0.0049708323 -0.00029534334 -0.004811571 -0.00014828518
16 0.0024291342 0.0030359924 -0.00043564243 0.0019128406 0.004266685 -0.0028113292 -0.004036752 -0.0038193266 0.0036728745 -0.0033968817 -0.0019341165 0.0036157807 0.002921844 0.0020693624 0.0035251183 -0.0018028663 0.0030052206 -0.0037509757 0.0040073283 0.0003673858 0.0030850805 -0.0019592552 -0.0011646186 0.0007510544 0.004573182 -0.0009366437 0.00088361325 0.004302876 0.0045358846 -0.00064701214 -1.3999175e-05 0.0049339654 0.0028336234 0.0014301497 0.0031841705 0.0013440312 -0.0018020777 -0.0022630428 0.0037291134 -0.0044773677 0.00014732592 -0.001002742 -0.0012316424 0.0018477421 0.004054209 0.0004649656 -0.0008349023 0.0010459675 -0.0034166514 0.002931579 -0.0033644133 -0.0027912247 -0.0036407239 -0.00021893997 0.0008526938 0.0046843654 0.0042630387 0.0011636107 -0.00027268752 0.0039975513 0.0038929423 0.0017470699 -0.004905662 -0.00019106735 6.31772e-05 0.0010219403 0.0048875846 0.00058706943 -0.002844606 0.001976598 0.00339045 0.00034347223 -0.000184868 -0.0025529556 -0.0012329251 -0.0015826875 0.0012702621 -0.0024713443 0.0032148743 0.0048603965 0.0036879918 -0.0041308636 -0.0030356543 0.00317444 0.0025794078 -0.0042144135 -0.0035153884 0.0020106612 0.0035615042 0.0032686684 0.0020928597 0.0006224308 -0.002593044 0.003621854 0.0024969433 -0.0010302602 -0.003103369 -0.0024159234 -0.0013062244 0.0003490667
17 -0.0041564954 -0.0018770944 0.0009894585 0.0001322995 0.0044366643 -0.0037824023 -0.004733582 0.0039852625 0.0021422077 -0.0015128558 -0.0007411605 -0.004088636 -0.000102633145 -0.001072492 0.0002728845 0.003979004 0.0019954597 -0.0013994062 0.003116549 0.0029952992 -0.0038446414 -0.0031221337 -0.0029924065 0.0014613159 -0.001775757 0.00168315 -8.447422e-05 -0.0024280006 0.002378353 -0.0017547 0.0023102248 -0.00065070577 0.0046470277 0.00029631518 0.0003607911 -0.004315246 0.00025996426 -0.0005722572 0.002761167 0.0028466992 -0.0018291294 0.003086714 -0.0034074455 -0.0040938905 0.002501492 -0.0047428436 0.003953805 -0.0012405931 0.0033020927 0.0011358992 -0.0037422227 0.0036169514 -0.0013847298 -0.003861947 -0.0030139606 0.0016391729 -0.0015267294 0.004764771 -0.0042767935 0.004935547 0.0034393724 -0.0017518811 -0.0017547924 0.0041874535 -0.0038828908 0.0019160504 0.00018777186 -0.0022542118 -0.0002367748 -0.0019225238 0.0044162935 0.0014133085 0.00422178 -0.0026022124 -0.001780262 -0.0008406257 0.0020668888 0.0036936775 -0.0008012289 0.004624784 0.002737044 0.0048493063 -0.00053598266 0.004606491 -0.0013094116 0.0024259835 0.0016169231 0.0023164288 0.0036028838 0.004952132 -0.004602378 0.0037617525 0.00065751513 -0.0005897307 -0.0039164694 -0.0027421569 0.0010164278 -0.002061947 -0.0011082476 0.0005224841
18 0.0014105435 9.054365e-05 -0.004083615 -0.0018718117 -0.0005097897 -0.00221242 0.0002605347 -0.0044739535 0.0028169258 0.0046299966 0.0028266506 -0.0037663102 0.0044688703 -0.00011547515 -0.0044638277 -0.0005756086 -0.0031070034 -0.0010299366 -0.0041252137 0.00024951855 -0.00058421073 0.0022807554 0.0046864226 0.0028236285 -0.0022827662 0.0011753337 -0.0026635437 -0.0012964164 0.0023817397 0.0027833283 -0.0027590627 -0.0030496572 -0.0041678143 0.00420748 -0.00297025 0.004461687 -0.002267297 0.0026139044 -0.0036011736 -0.0027812838 0.004394808 0.0011526281 0.0044969665 0.0042163404 -0.0020514494 0.0012609763 0.004252877 -0.0030867408 -0.0034585064 0.0011182022 -0.003700683 -0.0010543084 -0.003839502 0.00084139453 0.0045492277 -0.003648423 -0.001133247 0.0030187955 -0.0018055267 0.0030713957 0.003940814 -0.0019258184 -0.00088592665 0.00039669825 -0.0018533014 0.0043897685 -0.0038274974 0.0007171277 -0.004135752 -0.0036275308 -0.002807266 0.0034520784 0.0035115946 0.003821727 0.0008996385 -0.0013405359 0.0010206513 -0.0034942888 -0.0027267628 0.0015341677 0.0036592353 -0.0029469137 0.0023993538 -0.0044324375 -3.0681025e-05 -0.0011710406 -0.00281426 0.0043972917 -0.004559804 0.0022687078 -0.002743504 0.004745572 -0.004568441 -0.0036764173 -0.000604128 0.0010476075 -0.0008886857 -0.0003022398 0.0019621514 0.0020293938
19 0.004837119 0.0014348216 0.0042528445 0.0031986786 -0.0030722595 0.0018221508 0.0031589754 -0.0029924826 0.0015965342 -0.0003948873 0.0020655585 -0.003597734 0.0042608473 0.001829708 0.0019754795 0.0045717433 -0.004616489 -0.0011121107 -0.0007340573 -0.004509289 0.0019797464 0.00040464103 0.0037556551 0.00033734087 -0.0021105772 0.0032188436 -3.7840102e-05 0.0016170079 0.0022018366 0.0049784016 -0.0035263575 0.0048417794 0.0032398356 -0.0022972685 -0.00029950496 -0.0011771589 -0.002868077 0.0031694118 -0.0014372515 0.0024864115 0.004817767 0.0029433398 0.003862339 -0.0036108154 0.003476574 0.0024792156 0.0046836315 0.0025313543 0.0029277857 -0.0021856164 0.003025176 -0.00017313473 -0.0006065015 -0.0017336439 0.0016370295 0.00030492665 -0.0013243197 7.091509e-05 0.004848568 0.004447014 0.0025567077 0.00024884474 -0.00062669255 -0.0010855626 0.0002878867 -0.0014581543 0.0013258206 0.0013412265 -0.001994036 -0.0011499261 -0.0019944226 0.0015447112 0.0010271515 -0.0018292964 -0.0025251715 0.003704871 -0.000106653664 0.0033785272 -0.0010624342 -0.0015611553 0.00021671224 0.00027001556 0.0044073155 0.001929319 -0.0009903782 0.0040858937 0.002648104 -0.0029796963 0.0033935206 -0.001615312 0.0024187006 -0.004285572 0.0035187826 0.0009661396 6.719818e-05 0.0015673921 0.0005018753 -0.004764215 0.0015734229 0.0027495618
20 -0.0016630017 -0.0006760303 0.0045385035 0.00049922103 -0.0037790155 -0.0022891283 0.0047135875 -0.004421424 0.0040297816 0.0032002572 0.0044354023 0.0028965687 -0.0023041265 -0.0007580519 0.0040152976 -0.004641742 0.0021347208 -0.00069498876 -0.0043301503 0.0016185264 0.00025601918 0.0005514729 0.0007778895 -0.0023852657 0.0010936344 -0.0028470533 -0.0011942089 -0.004530089 -0.0022402864 -0.0011784488 0.003039212 -0.0009473157 0.0037242295 -0.0042459588 0.0029633958 0.0026279963 -0.00051686773 0.0011676955 -0.0013570029 6.916467e-06 -0.002357009 -0.0013614129 -0.0030404818 -0.0043203915 -0.0023614645 0.0009072488 0.0012338785 0.0021748333 -0.0010016821 0.0036538132 -0.0010266467 0.002762511 -0.00082658185 1.370348e-05 -0.00039739767 0.0038105417 0.0031243302 0.000415768 0.0007350296 -0.0048183906 0.0024619875 -0.0047746217 -0.00016426621 0.0013447637 0.0035204748 -0.0008014594 0.004937401 -0.0016287637 0.0016858946 -0.0002113576 0.004695994 -0.0019258994 0.0036819866 -0.0015839296 0.0012416076 -0.0006921124 -0.0012968814 -0.0009253891 -0.001035776 0.0025791805 -0.0018703395 -0.0011251627 -0.0019122385 -0.0044996655 0.0026690564 -0.0021820092 -0.00018803822 0.0044702115 -0.0035555959 0.0002240669 0.0018920028 -0.0047772527 -0.0023327367 -0.004926261 -0.002929135 -0.0013208431 4.4671353e-05 -0.0003531105 0.004477266 -0.002365052
21 -0.0045605474 -0.0046689617 0.0043370547 0.0016312976 0.0032428047 0.0019629882 0.0005261339 0.00076992624 -0.003826382 0.0010109083 0.00382875 -0.0017590702 0.0013358998 -0.0037152027 -0.0005935258 -0.0025889808 0.0011820341 0.0016482985 -0.0020472365 0.0043076323 0.0011658012 0.0039427783 0.0029180208 -0.0040440434 -0.0039169304 0.0043739714 -0.0008192579 -0.0017576031 -0.0042375014 0.0041176155 0.0012581558 -0.003367219 0.004881409 -0.0025829524 -0.0014184772 0.0030006273 -0.0005394756 -0.00028942805 -0.0040332577 0.0049405945 -0.00012667896 -0.0013668102 -0.0022179042 0.0023330976 0.0036340766 0.0022616033 0.0029122476 0.001107818 0.00194648 -0.0010555629 0.0012910562 0.0009900248 0.0015469883 -0.0045011383 0.0012095743 -0.0018210739 -0.004587087 0.00089429505 0.002869214 -0.0045155925 0.003389813 -0.004181926 0.0012401151 0.0007172092 0.0034386553 -0.003214202 0.0047480604 -0.000893041 0.00093058776 0.0014643199 -0.0018629974 -0.00033805612 0.00091676414 -0.002821763 -0.0005090381 0.0026854868 0.0045229113 0.002858949 0.0012179171 0.0013629477 -0.0043540727 0.0040990347 0.0016477341 0.002427286 -0.0034677745 -0.0048835934 -0.0031769054 0.0035218466 -0.0049374998 0.0009844671 -0.002438935 -0.0038359738 -0.0030838302 0.0016644187 -0.0049258247 0.0042673647 -0.0008080704 0.001826582 0.004989975 -0.0011614256
22 -0.0030704523 -0.0029166364 0.0026065279 0.0028588185 -0.0036655318 -0.00256779 0.0009034518 0.0038761124 -0.0033093262 -0.0025436974 0.0030673146 0.004539104 -0.0032163495 -1.6933307e-05 0.004342187 -0.0047765807 0.0019365228 -0.003026341 0.0022499044 -0.003698693 -0.001954525 0.004526182 0.0023015086 -0.0020531744 0.003342079 0.0016041398 -0.0022756152 -0.0016104381 -0.0041663796 -0.0024369513 0.0034133112 0.0010153274 -0.00093835127 0.0027264543 0.0044558886 0.0046748044 -0.00014329748 0.0016939947 0.0041623544 0.0035877367 0.004227775 -0.0041787196 -0.0007744068 -0.0012306697 -0.0009574741 0.0028377874 0.0033976063 0.0018731705 0.0029977942 -0.0017923182 0.0047368025 -0.0019287842 -0.004938439 0.0017297119 0.00035491725 0.0033308044 0.0023484523 0.0026878892 0.0026668394 -0.0026426197 0.002215358 0.00045210123 -0.0022866917 0.0014827955 -0.0010957955 0.0012661428 -0.0035463052 0.0025636833 0.0004946352 -0.0047328006 0.004568832 0.0031426344 1.5044119e-05 -0.0030965405 0.0014130594 -0.003507114 -0.0044615087 0.0030699437 0.0002746107 -0.0016542524 0.0025249715 -0.001730724 -0.0014554053 0.0041483 0.001767348 -0.0045185513 -0.0038435964 0.0021984666 -0.00014534034 0.0017566625 0.0028980235 -0.004470796 0.0024375576 9.6464064e-05 0.0020410968 0.0014766664 0.0025246483 0.0006550448 0.002128372 0.0043072086
23 0.0041507995 -0.002247464 0.0047330437 -0.004830927 0.004528378 -0.0022879255 -0.0012462514 -0.0033271504 0.00029577548 0.002844695 0.00032836897 0.004776557 0.00071773445 -0.0047622025 0.0012433273 0.0016624806 -0.0018688953 -0.0026968152 -0.0014233845 0.002291982 -0.0044206367 0.00023830123 0.0047411267 0.0049199862 -0.0017277235 -0.000692768 0.0037885047 0.002557112 0.0015531187 0.0021464457 0.0049660057 0.0009493595 0.0025822772 -0.004850692 -0.001797365 -0.0037591062 0.00037154602 0.00224244 -0.004885861 0.0001848517 9.1254245e-05 0.004221337 0.0038661826 -0.0032921247 -0.004741396 -0.003895462 -0.00276278 0.0031003319 -0.0013600879 0.0021782685 -0.00082301395 0.0025014556 -0.0031436328 -0.0036695478 -0.0038656164 0.0017931056 -0.0023386662 -0.0024738652 -0.0020490037 0.00033973344 -0.0042877505 0.004841827 0.004182243 0.0005151443 0.0018014256 -0.0039997324 0.0012602718 0.0025707195 0.0046670465 -0.0039090533 -0.002001046 0.00023861462 0.0047790874 -0.0010718498 0.0035780082 0.0043947855 -0.0029128313 -0.0030525587 -0.0040844753 0.0047828453 -0.0042725266 -0.00042227935 0.0011344575 -0.003157153 -0.00020833174 0.001018846 0.000120043755 0.0045015058 0.00014002621 -0.0012153261 0.0005655694 -0.001457253 0.0043733735 -0.0003685616 0.0035646288 0.0018965583 0.003689644 -0.002127173 -0.002672556 -0.0018695712
24 0.004144172 -0.0047101974 -0.004466547 -0.0004842584 0.0021684193 0.0047343774 0.0017484366 0.0032940907 0.0031380514 0.0035614213 -0.0010622512 -0.002548865 -2.043834e-05 0.00070781633 2.0164996e-05 0.0018632556 -0.004901201 0.0038878173 -0.0007132902 0.003651279 0.002225419 -0.004647209 -0.002699768 0.0029370822 -0.0049081687 0.0006170403 0.0026437961 -0.0020854378 -0.0010139789 -0.0035190647 0.0035373252 -0.0013322472 0.0026878547 -0.0030288582 -0.004403094 -0.0019222128 0.0036968244 0.0009731143 -0.0015559304 -0.0049760244 -0.0006836192 -0.0016698681 -0.0033659607 -0.004361327 -0.004868419 -0.0012961489 -0.0016510934 -0.0029470485 0.0024130605 6.3865446e-06 -0.0006254213 0.003702134 0.0017647343 0.0019042478 0.0049364436 -0.0028471397 0.0035726326 0.0012334604 -0.0010352642 -0.002692076 -0.0049117794 0.0049931845 8.315407e-05 -0.0039465493 0.0011097128 0.002727869 0.0019809417 -0.002463563 -0.0029544907 -0.0010952412 -0.0020273614 -0.001415658 0.004921536 -0.0011955088 0.0017186506 0.0015960042 -0.0020121455 -0.0047727036 -0.0049227267 0.0036646808 -0.0012761271 -0.0033484357 -0.0043719946 -0.0010566046 0.0011500106 0.0031926064 0.0024902974 -0.0027112185 -0.0027642094 -0.002958297 0.003309885 -0.0047177523 0.0018332875 -0.0011296277 -0.0049722544 -0.0004082853 -0.0028879123 0.004505853 0.0039150873 -0.002908445
25 0.0023164595 0.0009388691 0.0015021437 -0.0018032086 -0.003824219 -0.0029134047 0.0017897058 0.0034847595 0.0031032898 -0.0026165205 -0.004873998 0.0024154591 0.0015372643 -0.0005839439 -0.0025477153 0.0017593773 0.003750952 -0.0012202901 -0.0017806333 -0.0012999116 -0.0048500006 -0.0007752632 0.00031477772 0.0006378405 0.00031406572 0.0040655443 -0.003927349 -0.00033430802 0.00094889896 -0.0013928246 -0.0017300027 0.0037071547 0.0034898678 0.00033814926 -0.00490659 0.0011739419 0.0036305757 -0.0022745824 -0.0037318873 -0.000978611 -0.0025230104 0.004083152 0.0049900236 -0.0019891309 0.002951569 -0.003906259 -0.0037651048 0.0014389129 -0.0028178566 -0.0021263785 -0.00020255987 -0.0017182613 0.004936261 -0.003139847 -0.0029466802 -0.0046428167 0.0029243864 0.004530033 0.0032816883 -0.00026436104 -0.0030891078 -0.0028839384 0.002712294 0.00034259632 0.001128999 0.00037565595 -0.0026989148 0.00044421246 0.0019087126 -0.0009108088 -0.0023859744 -0.0039657443 -0.00022360869 -0.0024323307 0.00068893563 -0.004540305 0.0017892402 -0.0015733296 0.002623594 0.0049404604 -0.0019136798 0.004591585 0.0002446561 0.0023373053 0.00018276926 -0.0028267615 0.0019927244 -0.003516593 0.0048072506 0.0034017572 -0.0019200242 -0.004835681 0.00041791797 0.0011005364 0.0025095325 0.00049296627 -0.0022204595 -0.003757603 -0.0019158805 0.0023490572
26 -0.004518234 0.0020376141 -0.0037560922 0.0007331073 -0.0047452617 -0.0022836328 -0.0045044813 0.0012148176 -0.0023808354 -0.0016580701 0.0041560307 -0.0002268427 0.000524865 0.004349062 0.0010456527 -0.0020913004 0.0041365363 -0.002174016 0.002919525 -0.002694177 -0.0023841984 -0.0042966967 -0.0028703385 -0.0034200859 0.00036731735 0.0003579501 -0.003112333 -0.002522156 0.0018853475 0.002078293 -0.0048215096 0.0044798627 0.0017170594 0.0009079664 -0.0005366248 0.0027930178 0.0021397169 -0.0017687154 -0.0012385345 0.0043213796 0.0015956662 -0.004697612 -0.00312217 -0.0010161255 0.0006820904 0.003171674 0.0026250263 -0.002449274 -0.0029132396 0.0048432024 0.0007087225 0.0045466432 -0.0022330736 -0.0004976541 -0.0023326725 -0.00068987627 0.0039857198 -0.0012091517 0.004801835 0.004726003 -0.0037262666 0.00079492154 0.0004590205 -0.0042758007 -0.00021416601 0.0018240255 -0.0020039505 -0.00086791534 -0.000105388 -0.0048798737 0.002507234 -0.0029545564 0.0029161694 -0.0013413429 0.004971165 -0.003312602 -0.004103584 -0.002154371 0.0008178777 -0.0048294775 0.0038016513 0.004646478 -0.0023653076 -0.0031186403 -0.0003384375 -0.0023966085 -0.004381731 0.00032237312 0.00449159 0.00021896465 -0.0035910849 -0.0024793386 0.0011003693 0.0041297246 0.0018401942 0.0014546476 -0.0032643485 0.0045791864 0.0023575323 0.0038326476
27 0.0025709332 -0.0025392144 -0.004676209 0.0019313646 -0.0016553712 0.0046573095 -0.00089416513 0.0029023243 0.002711237 0.0029836968 0.0048674326 -0.0030626166 0.0034027435 -0.004370245 -0.0038029454 0.0004879241 -0.0030688804 -0.004077514 -0.0023182756 6.861752e-05 -0.0033148108 -0.00422631 0.0038801357 -0.0030855648 0.0034512542 -0.0041288696 -0.002259397 -0.0039749574 -0.0015188139 0.004500975 -0.0010709683 0.003697236 0.002893309 -0.0005805148 -0.004400535 0.002368356 0.00038116053 -0.0031021803 -0.0029536271 -0.0031905905 0.0011893236 -0.0044975886 0.0022622775 -0.004922495 0.0016568564 -0.0032484466 -0.0046330052 -0.0018961376 -0.0037569832 -0.00046802405 0.003059823 -0.004905889 0.004081209 -0.003147339 0.0009299116 -0.0025181312 -0.0045063393 -0.0017139411 -0.00043131784 -0.0043616956 0.0033933409 0.0036103306 -0.0010356177 -0.0033849687 -0.0034261132 0.0030926801 0.0036806408 0.0008810079 0.002957914 -0.0007839631 0.0010108175 0.0015391638 0.0039759465 0.0026924713 -0.00011698296 0.0037539527 0.0025216253 0.004029477 0.0033609597 0.0006556432 -0.0030492907 0.0030927965 -0.0014724655 0.002529148 -0.000624157 -0.0020512955 2.054032e-06 0.0030404972 -0.0009146952 -0.0036307024 0.00020845188 -0.0033572935 0.0031009167 -0.004607907 0.0010588742 7.555587e-05 -0.004602018 0.004351381 -0.0046944222 -0.002076559
28 -5.1125884e-05 0.00477771 -0.0025917375 -0.002271502 -0.003942743 -0.002675917 -0.004801999 -0.0006032721 0.00019464735 -0.0011800206 -0.0019920492 0.0031153448 -0.0013701927 0.004228426 0.004208274 -0.0045368285 -0.0045534777 -0.0017395932 -0.00034324406 0.000962717 0.0012269346 -0.0030494325 0.0031106882 0.0042254087 0.0010867347 -0.0031484144 -0.0047720186 -0.0018314414 0.0024379045 -0.0022830295 -0.0021845377 -0.0016065717 -0.004850639 0.0020787488 -0.0026551406 -0.0030864298 0.0042141946 0.001681142 0.0011232169 -0.0032262902 0.0010711229 0.0022446685 0.0003221645 -0.001912443 0.0011231713 -0.0036991173 0.003693414 0.0035925368 -0.004705576 -0.002133804 0.001205523 -0.0010204683 -0.0023581516 0.001039396 -0.0043072402 0.001522569 -0.0032454156 0.002589231 -0.0034006708 0.0017672312 0.0013188417 -0.0014314759 0.0046330644 -0.0024884588 -0.0018983239 -0.0029737519 -0.004222319 -0.002691617 0.0007754485 -0.0036434005 0.0017929785 0.0020755162 0.002808577 -0.0003059907 0.0023078565 -0.0010958631 -0.003552603 0.0023457156 0.0045261923 0.0047780303 0.0047360063 0.0030021435 0.0017152028 -0.0045816824 0.0038376031 -0.00032465626 -0.00017840276 0.0021462287 0.00024084793 -0.0018661355 -0.0028001582 0.0045993337 0.0034124702 0.0005990458 -0.0027032006 0.0016107731 0.004905617 -0.0034498041 0.0025759446 -0.0009695594
29 -0.0034501934 0.00021291198 -0.0043501924 0.0011722376 -0.0030152493 -0.0027053796 -0.0028759968 -0.0034101908 0.0014270972 -0.0017706 -0.0022681223 0.0037942417 -0.0029684375 -0.0042194156 0.0046584094 -0.0037484746 0.0031479253 -0.0014584237 -0.0024316548 -0.00022149784 -0.0020362139 -0.0019903134 -0.0031270385 -0.0017380761 -0.00068322336 0.0036794282 -0.0021058004 -0.00015297392 -0.0006890199 0.0015666503 0.002733639 -0.004474902 0.002096478 -0.0014621806 0.0028632358 0.0043767914 -0.0034999512 -0.0013026018 -0.0029871005 -0.0037590736 -0.003866483 -0.0010738741 -0.0033998298 -0.0031875838 0.002164701 0.0014298083 0.0006160857 0.0021152222 0.004085917 -0.0036993814 -0.0034210759 -0.003848394 0.0021689436 0.0014950586 0.000989031 -0.0013862192 0.0027023046 4.1653402e-05 -0.0015024429 0.001725961 0.000623744 -0.0030927067 0.0011378541 0.0017667268 0.00053621596 0.00036203023 -0.00478457 0.004348986 0.0017900513 -0.0010274095 0.0028430214 -0.004901637 -0.00069025205 -0.0023634373 0.003072098 -0.003739715 -0.0020755194 -0.0029191505 -0.00335387 0.004779659 0.0033416776 -0.0049750786 -0.00061275763 0.00022404129 0.0038413126 0.0048919376 0.0018766443 -0.0047771726 0.004902999 -0.0026820272 -0.0010108403 0.0025604619 -0.0044494276 -0.0015610487 0.004775295 -0.0033562188 -0.0030686138 0.004227249 -0.0043637333 0.0047030244
30 -0.002383471 0.0006848639 -0.0031902832 -0.004559988 0.004541197 0.0026487834 -0.0021487158 0.0044076545 0.0041284068 0.0021971609 -0.0024982542 -0.004896281 -9.001326e-05 0.0024285186 -3.5835896e-05 -0.0035892194 -0.0044179033 0.0037043197 0.0033049202 0.0015152893 0.0031413306 -0.0025922304 -0.004837912 -0.0013911438 -0.0009867926 -0.00044089183 0.004253111 -0.0033880756 0.0031348923 -0.00097089354 -0.002345855 0.003895224 -0.0018113065 0.003518097 -0.00068124523 0.0021585845 0.003483708 0.0029757181 -0.0015569222 0.0034714993 -0.00029603764 -0.002234836 0.004555797 0.002573276 0.00245712 0.0019664122 0.0031932034 -9.394251e-06 -0.0020062916 -0.0009469418 -0.004979964 0.0027603293 0.0019823383 -0.0015264237 0.0012484463 -0.0006236136 -0.0047540055 -0.0011676638 -0.00034459168 0.0031851502 0.0038037486 -0.0032695692 0.000656947 -0.002590034 0.0028492678 0.0022953907 0.00012594694 0.0020916695 0.0010262756 -0.0048131673 0.0025914023 0.0019341623 0.0021588607 0.0006216662 -0.0028515416 -0.0049253306 -0.0016040374 0.0047892947 0.0031124456 -0.0038529593 -0.0012579637 0.002787007 -0.004486851 -0.0030448139 0.0019638683 -0.0015148341 0.0042966567 -0.0026636587 -0.004890014 -0.004999559 0.0017062742 0.0011561052 -0.001256984 -0.0007615732 -0.002420764 -0.0012005453 0.0010671709 0.0011719335 0.0040858407 0.0010396661
31 -0.0005313037 -0.0023331414 -0.0027351105 -0.0033978205 0.004348113 -0.004494801 0.0049052527 -0.0045369435 0.00083299447 0.0029279627 -0.004504054 -0.0014049136 0.0037946692 -0.00024597906 8.0521684e-05 0.0040040165 -0.0040901355 -0.0037205652 0.0010191374 0.0017169593 -0.0021074067 0.001066898 0.0039738575 -0.0040815137 -0.004245363 0.003069262 0.002106669 0.0047042854 0.0029718308 0.0014556968 -0.0025711786 0.002084984 0.00030823238 -0.0040210737 0.0013288627 0.00040570274 0.003614787 -0.00079194363 -0.00115884 -0.0009711301 -0.0040853326 -0.0010387725 -0.0034841066 -0.0013856215 -0.0037379127 -0.0020554517 -0.002418416 -0.0049982527 0.0005697375 -0.0015909928 -0.0014775861 0.0046348013 0.00039381022 -0.00074776774 0.00036056805 0.0021131593 0.0011697831 0.0044653695 -0.004460742 0.002301339 0.004032491 -0.0020302401 -0.0038012825 0.0019304142 0.004786146 0.0030507008 -0.0012888217 -0.0018622696 0.00023658806 0.00037233531 0.0021493998 -0.0038695096 0.0034217928 0.003743276 0.001709926 0.0032314882 0.000283489 -0.00043105474 -0.0026878165 0.0041950233 0.002031133 0.0042984392 -0.0025056421 -0.0005296683 0.0049645873 -0.0011408536 -0.0037298733 -2.6835129e-05 -0.00050983904 0.0025811815 -0.0041809017 0.0032349946 0.0040731765 0.003282872 -0.003223803 -0.0049451813 0.00033676252 -0.00011822628 -0.0018386971 -0.0036528343
32 -0.0044330214 0.0019478207 -0.0034807073 -0.001308229 -9.840075e-05 -0.0005829991 0.0029085977 -0.0037903397 -0.0038368802 -0.0032002728 0.0012729592 -0.002328441 -0.004829081 -0.00414555 0.002404964 0.0019628382 -0.0011697905 0.0019495408 0.0042711776 -0.0016914404 -0.002895252 0.004130697 0.00034683058 -0.00047377218 -0.003127552 0.0005127443 0.0031529712 -0.0011319995 -0.0049151797 -0.004733393 0.0047376016 0.0038862322 0.004031794 -0.0033815228 -0.0031328462 0.0026957057 -0.00409156 0.0023571728 -0.0008951784 0.0025130264 0.0019950764 -0.0034067803 0.0028599715 0.0029567098 -0.004009029 -0.0044880677 0.0049774833 -0.0020007794 -0.0026719521 0.0024240543 0.00037232647 0.00015674252 6.150594e-05 0.0038046231 -0.0030004804 -0.00043378957 0.0038268166 0.0046374137 0.0037364634 -0.0028135781 -0.0005084635 0.004516867 0.002205268 0.0025789887 -0.002876529 0.0028171213 -0.00030818395 0.0048846873 -0.0017535156 -0.0014871347 0.004317538 0.0030921958 -0.004351793 0.0034094183 0.0023979521 -0.00087937154 0.00089979405 -0.0040905527 0.0017715716 0.004612212 -0.00036184676 0.0032444308 0.0036723185 0.0031866618 -0.0034111044 -0.00022046454 -0.0016874545 -0.0032288772 0.0049078288 0.003012903 0.004649915 0.0024312679 -0.0016958045 0.004652763 -0.004469568 0.001684959 -0.0012809371 -0.0010472685 0.002953899 0.0017621676
33 0.0029266644 -0.003296989 0.0010807943 -0.0036669103 -0.004334675 0.004856606 -3.216369e-05 -0.00040061958 0.0016773599 -0.003150897 -0.00432373 -0.0032478408 -0.001945744 -0.0041784896 -0.0047044368 -0.0047755167 -0.004815111 -0.0016740202 7.771142e-05 -0.004889558 -0.003556668 -0.00267591 -0.0014852423 0.0019894294 0.0028915498 0.003507467 -0.001889063 0.0045885844 0.0019450323 0.003943079 -0.0039261007 -0.002760505 0.0017247945 -0.00086031854 0.0038553132 0.003750505 0.0046141064 0.0026463373 0.0028960425 0.004478584 0.0005104863 -0.0007117139 -0.0038299905 -0.003058009 3.019208e-05 0.0039513595 0.0014250521 0.0034234244 -0.0022289853 0.0034865504 -0.0012620871 -0.002336002 -0.00096507603 -0.0026140946 -0.0009167404 0.00349556 -0.0017669534 -0.0047201044 0.0049827443 0.002218706 -0.0049568224 -0.002564072 -0.0023329235 -0.003878126 -0.001631164 -0.0005617584 -0.0025538665 -0.004380689 -0.00090231 0.0010176562 -0.004417252 -0.0017029964 0.0017253603 -0.0023448437 0.0021857196 -0.0026571208 0.00036641257 -0.004443997 -0.0041916836 0.0047643585 -0.0014626819 0.0022679418 0.0014407313 0.0014727325 0.0021384102 0.0031480566 0.0029232195 0.0013701348 0.0030518854 -0.0004213173 -0.0049963812 0.0045393715 0.00038924348 -0.004680631 0.0009429031 -0.004576607 0.0033536693 0.00015032152 -0.00082557835 -0.004294064
34 -0.0034037894 0.00062266225 0.0032121185 -0.0019176286 -0.0025520031 -8.9423265e-05 -0.002360195 0.004686298 0.0007096571 0.0019862638 0.0037537254 -0.0039749118 0.00265946 -0.0020729767 0.0009817956 -0.0038012848 -0.0008592345 -0.00265993 -0.0018557208 -0.0013454969 -0.0027801727 0.0038771387 -0.0020464181 0.0040234076 0.0038246652 0.004095449 0.0010835938 -0.004650097 0.0029034866 0.004109122 0.0037805308 -0.0035148175 2.5957357e-05 -0.003102201 -4.4791494e-05 -0.002793644 -6.78557e-05 -0.002786097 -0.003445994 0.0025486848 -0.0006248518 0.0006179265 -0.0019828766 0.0004612608 -0.0026060725 0.003591152 0.0038447287 -0.00022036675 -0.0034700208 -0.004306775 0.0004308275 0.0007327986 -0.003515868 -0.001353451 0.00368422 -0.0022829073 -0.0026127617 -0.0027145743 0.00044432655 0.002204869 -0.0033834064 -0.004681906 0.002601666 -0.0019313127 0.0017022314 -0.0039732778 -0.0041084783 -0.0049815606 0.0031545796 0.0028613964 0.004284175 -0.004654648 -0.0035595417 -0.0021916353 -0.0034255951 -0.00076068705 0.001967256 -0.002037369 0.0018031136 -0.0010842043 -0.002876976 0.004361014 0.0020504035 0.00075339386 -0.0015264708 0.00015787594 0.0045420164 9.103492e-05 0.0039603813 -0.004766797 -0.004271771 -0.0033341735 0.0030481536 0.0023598666 -0.00159356 -0.0009830133 0.0019010799 0.0030800812 -0.0033674035 0.001784802
35 -0.0039801775 -0.0031168358 -0.00032863393 0.0012310473 -0.0035640006 0.0002736058 -0.0030574421 -0.00035359804 0.0026063458 0.0026006182 0.004088726 0.003962517 -0.000810714 -0.0023386371 0.0045600003 0.004939491 0.004489951 -0.0017918933 -0.0039696 -0.0041914755 0.0045231357 -0.0030639123 -0.0040637795 -0.0024702768 -0.0016632073 -0.00063348 -0.0041171745 -0.0048920987 0.0022306554 0.0041019274 -0.00023023225 0.0029460648 0.0017170799 0.00014338503 0.002292422 0.0005259891 -0.0011641306 -0.0035934888 0.0038993992 -0.000555384 -0.0041809743 -0.0046411143 -0.00019408762 0.0037969183 -0.004156708 -0.0017590714 -0.004673262 0.004552466 -0.0034847658 0.0016212189 -0.0016465336 0.001595757 0.00077908766 -0.0037417202 -0.002740103 0.0007827119 0.0006973748 0.00038012816 0.0041897707 -0.0037986373 -0.003947141 -0.0019751184 0.0019202167 -0.0006823302 0.0005442756 0.00037236093 -0.0014850455 0.0024624048 -0.0048200167 -0.0042678695 -0.0039824746 -0.0018572586 0.002784134 0.0011546002 0.004074416 0.0018435675 0.0008151964 0.0003406126 0.0039242785 0.0027991855 0.0017114906 -0.00014243601 0.0015413533 0.002637695 0.0035768468 0.0016548019 -0.0039605703 0.0023117997 0.0048154052 0.0021169148 0.0048876116 0.004179 -0.0007633404 -0.000720412 0.0028596865 0.0009800964 -0.0014164227 0.0005778922 0.0020760447 -0.0011338894
36 -0.0033980096 -0.0016467464 0.0007054778 -0.0018653171 -0.0010319091 -0.0020901782 -0.0017834012 0.0015179431 0.0049791997 0.00081703346 0.0034799604 -0.0042285062 0.0014821626 -0.002667312 0.0007299199 0.0034595905 0.0039033107 9.37935e-06 0.0036638882 0.0018748189 0.002751133 0.002980817 -0.000266565 -0.004842473 -0.004452306 -0.0040653497 0.003349347 -0.001389218 -0.0017309762 -0.0026200693 0.0039906865 -0.001590156 -0.0023639798 0.0043149423 -0.0022465927 -0.0029388797 0.0031763343 0.0013934751 0.0010094359 -0.0027429634 -0.0026955055 -0.0011859601 0.00048213126 0.0048534293 0.0006501395 0.0015615532 -0.0033117533 -0.004725392 -0.0043820557 -0.0024989378 -0.004057865 -0.0029531675 -0.0042103487 0.00035492377 0.00241774 0.0029905643 0.00034253672 -0.002834785 -0.0023064583 -0.0035103387 -0.0018414317 -0.0016827858 -0.0034022443 -0.00042359298 0.0033842614 -0.003342353 -0.004210486 -0.0034193962 0.003963343 0.004567897 0.0021905894 0.004737477 -0.0029316472 -0.0033162092 -0.0042412756 -0.0021980084 -0.0045376373 -0.0048485375 0.0031039445 0.003982627 -0.0008688341 -0.002561236 -0.003404532 -0.003631413 -0.0018776548 -0.0043467125 -0.001980421 -0.0007710736 0.0040486744 0.001749869 0.0025810795 -0.003799988 -0.003926041 -0.0014633154 -0.002581923 0.0032457793 0.0013395892 -0.003640628 -0.00086028036 0.0009687715
37 -0.0027766745 0.0009269612 -0.0023293942 -0.0025672566 -0.002084732 -0.0020519362 0.0013171481 -0.0023360937 0.004211393 -3.0035153e-05 -0.0039037673 0.00073704356 -0.0043370114 0.004240781 0.0026328098 0.004441481 0.0034130635 0.0007058545 0.0032173097 0.0033874866 -0.0004025423 -0.00050009135 0.0022580493 -0.0032076621 -0.0042331675 -0.0028387133 0.0024416042 0.0045253374 0.0017562872 -0.00031711953 0.004312314 -0.0009398926 -0.0022851543 0.0007628123 -0.0019705503 -0.0018320156 -0.003505513 0.0009919731 -0.0029676508 -0.0032644253 0.0016722912 -0.00078752683 -0.0004221634 0.0041603157 0.00030700862 -0.0027813285 0.00042419508 0.0018091081 -0.0038754712 0.0028360505 0.0047490466 -0.0005820412 -0.0020161497 0.0016362024 0.0008495408 -0.00033880398 -0.0022612035 -0.002440816 0.0049115615 0.0028031734 -0.0027964173 0.00057026464 -0.0021440089 -0.0021933722 0.0010965317 0.0018135463 -0.004745644 0.003918263 -0.0013916248 -0.004435516 0.00020486582 0.0013454664 -0.00020600623 0.0022946154 0.0025205086 0.002432148 -0.0031599808 -0.0006249063 0.0043136384 0.004617383 -0.0048221573 -0.0015442437 0.0037096962 -0.00043064635 -0.0028579354 -0.0015967106 -0.0037739163 0.0017889449 0.00031757122 -0.0004390115 -0.0036398089 0.0035635345 -0.0008338932 -0.0024131322 -0.001787585 -0.00024798512 0.0047445307 0.00019516936 0.0044358345 -0.003388991
38 -0.0023849737 -0.0044335616 0.00494761 0.0047290483 0.00048470031 0.0035005258 -0.0012158996 0.003792489 -0.0014665157 0.0031991443 0.0036999453 -0.00078517664 0.0030112145 0.0035842648 -0.0009179902 0.0027806205 0.0045696786 -0.0048780865 0.0011551152 0.002266556 0.00073673064 -0.00305493 0.00040861918 0.0015160819 0.0046992227 0.004496011 0.0019386266 -0.003654229 0.0009375941 -0.0049513327 0.0014848108 0.004403443 -0.0036185598 -0.0009036986 -0.0044565834 0.00011658203 -0.0025517284 0.004903038 0.0039135776 0.00034625223 -0.004684204 -0.0015252738 -0.0035765034 -0.0024471825 0.0045187464 -0.0011241715 0.0026483196 0.0028408943 0.0015060753 -0.0034564554 -0.0040169964 -0.0046553575 -0.0046142326 -0.0013283063 0.0027736537 0.0020774691 -0.003367409 -0.0038074232 0.0022393996 -0.002303524 0.0049644895 0.0019488172 -0.0049828617 -0.0012271309 0.0001590033 -0.0025631057 0.0010128613 0.0035855435 -0.0025988917 0.0003341986 -0.0037394392 0.004916434 0.00070126634 0.0009045629 0.0007500672 -0.0036574064 0.0046649855 -0.004760066 -0.0021105336 -0.0013877307 0.004027291 -0.0034107089 0.0023043547 -0.0027482384 -0.00035854103 0.0024883011 0.003077847 0.0032279827 -0.00331944 0.0025749947 0.0012038904 0.0027260268 -0.0041296254 -0.0015337216 0.002089758 0.0007445896 -0.0015329272 -0.0026482604 -0.00032497477 0.0029250896
39 0.002605638 -0.0039323377 0.0009278129 0.002576497 0.0018288619 0.003237592 0.0048573455 0.00215897 0.0007893173 0.00045089796 0.0002390407 1.4828984e-05 0.00028965948 -0.00029030256 -0.0034831655 0.002927716 0.0043138424 -0.0042292653 0.0004017735 0.0048617497 -0.0025524956 0.002165671 -0.0040624803 0.001851616 -0.0026364243 -0.0009770179 0.00055515114 0.003738341 -0.0028616951 -0.0018063139 -0.0027415913 -0.0030889963 0.00012688898 0.0016413974 -0.000689948 0.003215815 -0.0047956556 0.000957001 0.00050120475 -0.0032554048 0.0049093002 0.004825225 0.0012770654 0.004848837 -0.002363903 0.0009253714 -0.0035215188 -0.0017678654 0.0012724781 0.0022914414 0.0040796157 -0.0037800712 -0.0018001609 -0.0011533666 0.0011894582 0.0024918546 0.00019076001 0.0039804736 0.0029179584 -7.707905e-05 -0.0014215589 4.441198e-05 0.0024451185 -0.0017094219 0.0023735235 0.0016634101 -0.0031332392 -0.0040703253 -0.0030927765 0.00035581132 0.00079338904 -0.0012638939 -0.0035042674 -0.001263703 -0.00056929607 -0.0024187195 -0.003816696 -0.0032268255 -0.0019904017 0.0033730064 -0.00048676366 -0.001053832 1.2448989e-05 -0.0020765273 -0.0041302433 0.0033868505 -0.0044959495 0.002020821 -0.00016143313 -0.0013678074 -0.0018963646 -0.0049547968 -0.002662894 0.004597131 -0.0039150473 -0.0026742427 -0.0026277679 -0.0015355162 5.4171775e-05 -0.0025119907
40 -0.0028845428 0.0014132182 -0.002783876 0.00019915821 -0.002524768 -0.0018851734 -0.00021134084 0.0046476433 0.0048193326 0.004480268 -0.004953276 -0.0013622493 -0.0041849525 -0.000950709 0.004817956 -0.0005939803 -0.004845851 0.0010288465 0.0037031062 0.0024149078 -0.0016701489 -0.004765222 0.0034119366 -0.0042325584 0.004597284 0.00024842797 0.002590682 -0.0027755026 -0.0012326287 -0.0042695724 -0.0041543585 0.0022158772 -0.0012852829 -0.0016110807 0.00048645912 -0.00055306125 -0.0015981786 0.0037624808 -0.00026035728 -0.0028444235 -0.0019797485 0.0025491999 -0.0014692468 -0.004958036 -0.003193438 -0.0003933357 0.0017208504 0.00092332857 -0.0017663168 0.0019051218 0.0030961474 0.0017577666 -0.0034977084 0.0024020774 -0.0013062942 0.0028464869 0.0025894265 0.0039305445 0.0029714964 0.0028957333 -0.0025908165 0.0016818722 -8.0882106e-05 -0.0037621665 -0.0023827164 0.0005294937 0.003333034 -0.00037379796 0.0039845267 -0.0024795705 0.0030403556 0.0022179019 0.002411839 0.0046849335 0.0016021589 -0.0027486174 -0.0044819997 0.0035184752 0.0011280226 -0.00024630083 -0.0034131955 0.0042486424 -0.004405429 -0.0027871798 -0.0013648223 -0.00310275 -0.0005331822 0.00070566125 0.00076220697 0.00080097746 0.0038063647 -0.004042691 -0.001214928 0.0011685109 0.0012975931 0.002007022 -0.0014170348 -0.000821718 -0.0024156081 -0.0013713497
41 0.0005332525 0.0031847907 0.0043965746 -0.0027597814 0.0020260918 -0.001094213 0.0015820367 0.003001731 0.0042700814 0.0008805846 -0.0036208015 0.0028320253 -0.004952744 -0.004671877 -0.004290981 -0.0032218401 -0.003583591 0.0044445703 -0.0020075655 -0.004708986 0.0024470454 0.0009996886 0.00039965846 -0.0009777248 -0.002844796 -0.0007096315 0.001943931 0.0021882672 -0.0047321785 -0.00076135015 0.0030275984 -0.0044597005 -0.0037345723 0.004306251 0.004831071 -0.0016484701 0.0027975626 -0.0037085018 -0.0007762229 0.0014157183 -0.0035329298 0.0027320352 0.0008947933 0.0029491447 -0.0035025496 0.0010274607 0.001475852 -0.0032505703 0.004671703 -0.0005034171 0.00090018986 -0.0019731831 -0.0006638472 0.0016005142 -0.0017430068 -0.0012307744 -0.0044385367 0.0040390315 -0.0015202046 -0.003512525 0.0025292565 -0.0018564153 -0.0019817608 0.0015578615 -0.0048365993 -0.003770927 -0.0012879758 -0.0014715863 0.0037448658 0.0022757966 0.0028652959 0.0039645564 0.0047861543 -0.0012920774 -0.0021106773 0.0033354312 -0.0020841933 -0.0013638383 0.0030022096 -0.004842057 -0.0020123452 -0.004488846 -0.0017252695 -0.0020409632 0.0006338237 0.0013891105 -0.003400432 -0.0043939245 -0.0005717776 -0.0034805697 0.0018555094 0.004186035 0.0040564975 -0.0021387625 0.0023390697 -0.003381788 0.0032461267 0.001956991 0.0036535533 -0.0018165039
42 0.002624523 -0.0010047755 0.004161493 -0.0025976913 0.0036908686 -0.0021293086 0.0034659756 -0.0043968135 -0.00022119703 0.0034978166 0.0041200183 0.00048386026 0.0033881105 0.00064391736 0.004061193 -0.0010592001 -0.0038678944 0.00072268303 -0.0032423865 -0.00243244 -0.0048370147 -0.0020259744 0.0009706933 0.0010677348 -0.004577016 -0.0033922528 -0.0029091877 9.7995624e-05 -0.0028717606 -0.00499943 -0.003078736 -0.00206025 0.0030705305 -0.0010214411 -0.0021031327 0.0004664911 0.0018002428 0.000114193186 0.0014609117 -0.000787633 0.0017128848 -0.0015856009 -0.00018305471 -0.0034683547 -0.004167868 0.0026093344 0.0045769894 0.0034696432 -0.0012852382 -0.0038599796 -0.004140737 0.0028521093 -0.00025010714 0.00031799963 0.0006926907 -0.0023737485 0.0007654042 0.0026230942 -0.00016795285 -0.0035121357 0.003270588 -0.0043858504 -0.00160335 0.0010032929 0.0035498561 -0.004562694 -0.003653043 -0.0036117905 -0.0030499278 -0.0038205408 -0.0036111865 0.0019469801 -0.0037913388 0.0041165007 -0.00038465997 0.0013524038 -0.0021579664 0.0010857154 0.003279198 -0.003609582 0.00028289435 0.0033618947 0.003542222 -0.0043620393 -0.0034555125 -0.0029981828 -0.0017036991 0.0035265097 -0.0041648126 -0.0007471489 0.0036496604 0.0032180436 0.0048615895 0.001901946 -0.0006351317 0.0025999527 0.0018048375 0.0033214297 0.004792746 0.00480825
43 -0.0022518432 -0.0022901327 -0.0026149075 -0.002579267 0.0047871396 0.0006941012 -0.0019159615 -0.0031526298 0.0013466841 -0.0005092169 -0.00097844 6.665755e-05 0.0007318426 -0.0035322052 -0.004659328 0.002744581 -0.0015665912 -0.0040038764 0.001718068 0.0035916818 0.0010680938 0.0032149646 0.00063337013 -0.0048687276 0.0040219715 -0.00018354552 -0.0023098344 0.004878509 -0.0015071076 -0.002885527 -0.0035146486 0.003431526 0.0010684691 0.004333644 0.0030843653 -0.0044927024 -0.00066799996 -0.0038707058 -0.003892281 -0.0048620766 0.0007148967 0.00026440434 0.0041832 -0.0022930384 0.0011918456 0.0001067305 -0.00065236725 0.004211642 0.0022462187 0.0018426394 0.0015665335 -0.0033013856 0.002159 0.0044376785 -0.0018002177 -0.00241567 -0.00024911808 0.001393042 -0.0030251513 -0.0025182038 0.002231428 -0.00227917 -0.0022597318 0.0011807741 -0.0014807116 0.0005118428 -0.0002798778 -0.0038247823 -0.0046534184 -0.003271327 0.00341589 -0.003675956 0.002777779 0.004772377 -0.0031771928 -0.0008362108 0.00393873 0.0028004432 0.003938812 -0.0046175695 0.0049519315 0.0034007328 -0.0034226156 -0.0028036295 0.004470121 -0.000660039 0.0010401844 0.00015291339 0.00097433245 0.0004085712 -0.0043899817 -0.0023686725 0.0019965 -0.0032262872 -0.0018884498 -0.0010222541 0.0037003048 0.0015864349 0.0019834493 0.0021549012
44 -0.0019973028 -1.4318619e-05 0.004712632 0.00082763145 0.0012856843 0.0019382495 -0.0023248116 -0.001303873 -0.0046631363 0.0046639713 0.0034664748 0.0021380587 0.00031966344 0.0028514108 0.0028536115 0.0048853094 -0.0046602297 -0.00047477242 0.0036838278 0.0044338573 0.001908192 -0.0036406792 -0.0014678806 0.0011234903 -0.0037586128 0.0031353272 0.002466519 0.0032350793 0.003393447 0.0018444122 0.0040147714 0.0026655686 0.0013802717 -0.0028930635 -0.00031587947 0.0045155147 -0.004761383 0.0016386686 0.000405177 9.416323e-05 -0.00258321 -0.0025889534 -0.004257639 0.0025663595 0.0035148682 0.0013650833 -0.00083338236 -0.0020561975 -0.000454437 -0.0007679011 -0.002997056 0.002923754 0.0043768007 0.0009675664 -0.00093871495 0.0013334067 0.0038838452 -0.0044760145 -0.003144499 -0.0005320399 0.0030976776 -0.0007336051 0.0048533715 0.0011034119 0.0023673433 -0.0017128182 -0.0022560917 -0.0044394494 -0.001359551 0.004680737 0.0037544305 -0.003310572 0.0009549856 -0.0014725155 -0.0002980302 0.004201322 -0.0009084302 -0.0035185742 0.0038087806 -0.00276846 0.0027812463 0.002359706 0.0040628985 -0.0022744709 -0.003267412 0.003123195 0.0021917946 0.004203641 0.00028764643 -0.0048822793 -0.0026089095 -0.00016589928 -0.0043679615 0.0040356666 -0.0029656296 -0.0028860068 -0.00063689705 -2.6868656e-06 -0.0019169752 0.0010084878
45 0.0012030057 -0.0035583966 0.0001836298 -0.00051781256 -0.0019849138 -0.0038950478 -0.001145314 -0.004783841 -0.0024151695 0.0003289734 0.0044340985 -0.0011052387 0.003538494 0.0045255423 -0.0006736154 0.0038318299 -6.6361856e-05 -0.004177857 -0.002105518 0.0035754237 0.0026039393 -0.0035976307 0.0015161145 -0.0031397096 0.0007939986 -0.0033957134 0.0008327253 0.0038058078 -0.0017405814 -0.0015669537 0.0021190182 0.0041138735 -0.0046134167 0.0007240502 0.0004630722 0.0028167022 0.002184323 -0.004230715 -0.0049197366 0.004993178 0.0044700876 0.0017179591 0.002179557 0.003927136 -0.0020885842 -0.0017508816 -0.00014863117 0.0021581883 -0.0014869135 -0.00469233 -0.0049984264 -0.0020877433 -0.0007037716 0.0006872774 0.004652421 -0.0038314927 0.001136607 -0.003084467 -0.0004703547 0.00032007648 -0.0022195154 -0.0041950345 0.004488989 0.001963988 -0.0025141698 0.004237664 0.0030366909 0.00018977933 0.004964048 0.0027414816 0.00024275621 -0.0018451989 0.0015845662 -0.0040864637 0.00086812954 0.0033925343 -0.0041915886 -0.0044193827 -0.0019116199 0.0019005323 -0.0010075504 0.001598767 0.0042084185 -0.004159175 -0.0035300362 0.0005478505 -0.0021522206 -0.0032891028 -0.0026865667 0.0005595023 0.0027429317 0.002277228 0.00093925186 0.003964415 -0.003462011 0.0034055654 0.0019747526 -0.0017488778 0.0049125534 0.0027268678
46 -0.0025902162 -0.0003629499 -0.0021258795 0.0021201507 0.0021518138 0.0033682007 0.0048294608 0.0033895243 0.00042412197 0.0033561839 -0.0033703214 0.00091208937 0.0006216215 0.004128622 -0.00014692172 -0.0011254691 0.0014777998 -0.0011328626 -0.004714166 0.0038902555 0.0019146842 0.0006851903 -0.0017384619 0.004537617 -0.003472677 0.0021657324 0.0034739384 -0.0018213957 0.0020619305 0.002107154 0.0043862853 0.003054088 0.0022761384 0.001816018 -0.0038344692 -0.001997562 0.0013882844 -0.0033340328 0.0029635327 0.004051068 -0.004685998 0.0027316916 -0.0028079837 0.0029163416 -0.0020289826 0.00057110237 0.003941224 0.000110758 0.0037640324 0.0046563046 0.0018301536 0.0006194175 -0.0038004685 -0.00037115952 -0.002361257 0.0013517318 -0.0020188193 0.00045653805 0.0043192934 0.0007440336 -0.00042323722 -0.0032061446 -0.00012622355 0.0031390348 0.00410631 0.0041894903 -0.0048457156 0.0028116084 0.0003411849 -0.003583664 0.0008811159 -0.0022336936 -0.0020364297 0.0038037244 0.0016152696 0.0016739094 -6.7612156e-05 0.0017658011 -0.0012311214 0.0024419045 -0.0046219206 0.003358554 -0.0023853064 0.003461806 -0.0044298344 0.0010471595 0.0006181947 0.0025209868 0.0016194326 0.0016295533 0.0039350362 -0.00450099 -0.002729262 0.0017891848 -0.00016599894 -0.0046400866 -8.168258e-05 0.004818081 0.0031745443 -0.002176968
47 0.00088869967 -0.0019669074 -0.0039078337 0.00035294704 -0.003654644 -0.003076931 0.00446456 -0.0047432384 -0.0033978312 0.0034800908 -0.00091324747 -0.002602316 0.0022308594 0.003034681 0.0037111975 -0.0040919143 -0.0025624936 0.0034302482 -0.002528844 0.00044033816 0.004435502 0.0044084797 0.003176733 -0.0015321535 -0.003891786 -0.0043516816 0.0012092078 -0.0034433287 -0.0014117337 -0.0043547605 0.002985932 -0.0018665432 -0.0023603975 -0.0029609345 -0.0024615596 -0.00474377 0.0023609228 -0.001089925 0.0009864438 0.0028123716 -0.0027953456 0.0012304336 -0.0018814879 0.004170564 0.0038944185 -0.00030645356 -0.0028560827 -0.000871656 -0.0017365604 0.0024948334 0.0035906313 0.0029351255 -0.004805069 -0.0033948994 -0.0047703064 0.00019705854 -0.004477933 0.0008799648 -0.0036096214 0.0008457708 -0.0017612237 -0.003525626 0.0005707359 -0.0005450151 -0.0029220092 -0.0030101615 0.0049764533 -0.00220816 0.0005640853 -0.00016028527 -0.0038831406 0.0047676936 -0.0037964308 0.0010802811 -0.0009909463 0.002407143 -0.002743901 -0.0025541014 0.0018121 0.0034851525 -0.004598842 0.00020850962 -0.0048976294 -0.0007629753 0.00072569726 -0.004747351 0.0007202057 0.004456794 0.0018158602 -0.0015957027 0.0034996802 0.0029382566 0.0043635163 -0.00059856614 -0.0033253408 0.0022082333 0.004008335 0.0019377624 0.00062234886 0.003513934
48 -0.0049714255 0.0015013604 -0.001051221 0.003744836 0.0010582856 -0.00480134 -0.0024654174 0.001347505 0.0028970838 -0.002240647 -0.0041287313 0.0017451174 0.00060817134 -0.0007703905 -0.0026471727 0.0034834715 -0.00056781154 0.0025182539 0.003050454 0.0048977425 -0.00071452744 0.0028077941 -0.0015703093 -0.0032436932 0.0020961948 0.00025549578 -0.0032600623 0.004847563 -0.0042515746 0.0012655552 0.0013269414 -0.0021044926 -0.0034396779 -0.0013909596 -0.0035098735 0.0021531591 -0.00096147694 -0.0024843044 -0.002586345 0.001958822 -0.0037233923 -0.0011098385 0.0024969662 -0.004731911 0.004877574 -0.003981105 0.001676619 -0.0014783286 -0.0018372256 -0.00057737716 -0.0041069943 -0.004574297 0.0015490595 -0.0028412193 0.0025517559 -0.0012013107 -0.0020106935 -0.0031732433 0.0005312711 -0.0006747586 -0.0005931789 0.0013041557 -0.00052523054 0.0017912411 0.0049057472 -0.0048376312 -0.004622207 -0.0011326873 0.0015373845 0.00063286116 0.0019009183 0.002299558 -0.0018155836 -0.0014930808 -0.0010409034 -0.00019690674 -0.004429219 0.0004081796 0.0033118138 -0.003092001 -0.0006715446 0.004682755 -0.0016987801 0.0017730594 0.00416761 0.0036491817 -0.0018584989 -0.0036703474 0.004511675 -0.0031341093 -0.00096605765 -0.0044638836 0.0008415892 -6.5312255e-05 0.003744972 0.0042986507 -0.00040616794 0.0010615843 0.0012856144 0.0019102665
49 0.0034981957 0.0009780577 -0.0023566948 0.0042048153 0.0003657015 0.0017499728 -0.004302146 0.0022179717 0.0036613634 0.0016528703 -0.0018806653 0.0017944323 -1.4839228e-05 -0.0020402616 0.0017939047 -0.0018920475 0.0043318905 0.004948334 -0.0018381542 0.003910441 0.00069016404 0.0022371705 8.125417e-05 0.0014345502 -0.004287216 -0.0045818547 -0.004735937 0.0027348436 0.0004888773 -0.0035977177 -0.0017914968 0.0026312359 0.0017173202 0.00075990614 -0.0002993648 0.0046125827 0.0023099124 0.0016856152 -0.0030403924 0.0011038943 -0.0023581088 0.002844925 -0.001014092 0.0022810004 0.0012383065 0.0007154918 0.0030587306 0.0010253503 0.0037278756 -6.280234e-05 0.004714327 -0.000117476564 0.001456969 0.0047381287 0.001455971 -0.0041025258 -0.0030334448 0.0019295723 -0.0033609332 0.0043246225 -0.0004132348 0.002445749 0.00055674184 -0.0032319366 0.001416258 0.0017275005 -0.0020728833 0.0014230586 0.0028311703 0.0015402781 -0.004248104 0.0012636711 0.0035690702 0.0033622282 0.004754415 0.0023029125 0.0048147254 -0.0024867915 0.0014158278 0.0034657288 0.0035593845 0.0047100475 0.0013452428 -0.0020800233 -0.0005655163 -0.0016242319 0.0030279662 -0.001586433 -0.00025745016 -0.0027995026 0.0011023306 -0.0027900958 0.0025492376 -0.004517584 -0.0021894467 -0.0022429503 -0.00016138982 0.0022845548 -0.0024962174 0.0034444407
50 0.002854257 -0.0020432137 0.004369191 0.0036689807 0.000708316 -0.00035297684 -0.0014907527 0.00016255071 -0.0048322165 -0.004304671 0.0028242907 0.0031218883 0.0010008733 -0.0016406251 -0.0031140852 0.0014309268 0.00026663532 -0.00047776802 0.00035588862 0.0026711738 -0.0010154475 0.0037675658 0.0035392428 0.0031028846 -0.0014345245 0.00047520408 -0.001599232 0.0046897177 -0.0025126648 -0.0013996218 -0.0046194564 0.0014624107 -0.000911606 0.0042616166 -0.004614614 -0.003767929 -0.0019212477 0.0008516866 0.0024874979 0.0043662563 0.0049627945 3.9732084e-05 -0.0012780172 0.0044279667 0.0019044168 0.0009564245 0.002720886 -0.0006338819 -0.0018098252 -0.001086901 -0.0026023865 0.0016262475 0.003396362 0.0026181499 -0.0014242101 -0.0017681282 -0.0035451334 0.0048091765 -0.004954523 0.0018830583 -0.0030563092 -0.0020301503 -0.0008087759 0.0023251502 -0.0033576698 -0.0016692686 -0.0009536878 0.002759255 -0.0017937697 0.004095274 -0.0006460189 -0.001981598 0.003946496 -0.00020481087 -0.0023485995 0.0044972366 0.00087247184 -0.0013676519 -3.932696e-05 -0.0029099374 0.001685577 0.00412781 -0.0011168451 0.0033910498 0.0010586991 0.0047836406 0.0021853703 -0.0027807993 0.0019371016 -0.0038930904 0.0035432382 -0.0037179582 0.004520824 0.0043769116 -0.00047319895 -0.0039922153 -0.00086955726 -0.0005785753 -0.0041825715 -0.0015009821
51 -0.0012369645 -0.0040719924 -0.00030269334 0.0031302003 -0.0022426748 0.0049262224 0.004711601 -0.0036249445 0.0023347843 0.0035447152 -0.000104398 -0.0011858665 -0.0036032442 -0.0034396565 -0.00464912 -0.0009509227 0.0044201585 0.0017947936 0.0024441849 -0.00024098717 0.0018901248 0.00027069496 -0.00490664 0.004725123 0.002393783 0.0033126175 -0.0005495297 -0.0010626246 -0.003183714 -0.002522053 0.0010140729 -0.0015583921 0.0035274513 0.00083977496 -0.0032114547 0.0046944376 -0.0022188567 0.0021036328 0.00489721 0.0049008634 0.001671446 -0.0031422405 0.0013960628 0.0018471414 0.0028522909 -0.00045197736 0.002202854 -0.0005651838 -0.0047571496 0.0036558025 0.001594706 0.0024903263 0.0011542062 0.0016792226 -0.0043651746 0.0013299771 0.0006886767 0.0018571783 -0.0039287405 -0.0046879756 0.004186135 0.000671376 0.0024504173 -0.0034013032 -0.0033265662 0.00025714748 0.0049101487 0.0007250565 0.0040345136 0.00389734 0.002047679 -0.00012664218 -0.0028241675 -0.0015739126 0.0038365033 -0.000619994 -0.0027712137 -0.0021717174 0.0031371135 0.0049192896 -0.004162421 0.0008118856 -0.00211641 -0.0020545507 0.0020113857 0.0022834945 -0.0027895914 0.0047542797 -0.0042136465 -0.00067813275 0.0031126123 0.0040204674 0.00064698095 0.00033644726 -0.002482016 -0.0018185037 0.0039170813 -0.00025921362 0.0025933562 0.0042784335
52 0.004333785 -0.00071391277 0.0041086385 -0.003915996 -0.0037707489 -0.0024162405 0.0010200334 -0.0034624506 0.003180678 0.004791529 0.0020887195 0.0008074059 0.0033065546 0.0009401478 5.0506555e-05 -0.0028182112 -0.0010465123 -0.004395011 -0.004875377 -0.0046167397 -0.0003836318 0.0030639404 0.0016091149 0.0036751926 0.0049528824 0.0028058486 -0.002390226 -0.0036809032 0.0019340608 0.0013817111 -0.00075878855 -0.0014162373 0.0025657355 0.004973579 -0.00247195 -0.004565027 0.0048618345 -0.00035251817 -0.00029889448 0.004323086 -0.0011538749 0.0045640785 0.0031244084 -0.0038673233 -0.0015397763 -0.0039089797 -0.00052075787 -0.0040933606 -0.003934525 0.0032376423 -0.0020222736 0.0007799282 0.0011872184 0.004574229 -0.00085863704 -0.0014628046 -0.0013200385 -0.0016007924 0.00025225384 0.0042419517 0.0010472415 -0.0009945645 0.0036339415 0.00074874517 0.001614036 -0.001433996 -0.0035616509 0.0008493378 0.002524266 0.0024375897 -0.004097352 0.0018078992 -0.0040765787 -0.0017529987 -0.0035252068 0.00093089277 0.0022542155 -0.0038925677 -0.003032375 -0.0020129806 -2.8397888e-05 -0.0011060662 -0.004835502 0.004443153 -0.002392047 -0.0018775398 -0.0027661198 0.0045331856 0.0014574267 -0.004905887 0.004860443 0.0009851921 0.00411168 -0.0017031461 -0.0013638812 0.00480358 -0.0015112585 0.0035654614 0.001267944 -0.0013217449
53 0.002108079 0.0028809225 0.0042305402 -0.0016603034 -0.0011003839 0.0030547883 0.0026323157 0.0010000682 0.002266063 -0.0031258082 -0.0019894575 -0.0027101748 0.0031594029 0.003911132 -0.0003454103 -0.004070729 -0.0010595368 0.0019826377 0.0006096666 -0.0009835293 -0.0031853234 -0.002484842 -0.0040369295 -0.00091466913 -0.0037834663 0.00052184286 -0.0035608266 -0.0021855223 0.0030917507 -0.0004083393 -0.0032791607 -0.0043146247 -0.0021707814 0.001294666 -0.00389583 -0.004441309 -0.0043369965 -0.0015386622 0.0018549166 -0.0019447838 0.0019031079 0.004993653 -0.002232362 -0.0026337856 0.0009678616 -0.004187311 0.000108154956 0.00073709013 0.0046129376 0.0032938262 0.0028061229 -0.002020502 -0.00044093467 -0.0049097855 -0.002089265 0.0037741456 0.001958027 0.0016019149 0.0022192956 0.001843995 0.00010134047 -0.0020919405 -0.0035169912 0.0008932566 -0.0025058913 0.0037787678 0.002004161 0.0018944526 0.002868183 -0.0047534113 -0.0022357225 0.001117493 -0.00048079947 0.0019935179 -0.0049937875 -0.0034988385 -0.00402423 -7.4512325e-05 -0.00025857752 -0.0030843676 0.004427109 -0.0030774502 0.0037478264 -0.0029960577 0.0021716147 0.0023358124 0.0006144084 -0.0030068487 -0.0013498939 -0.003139913 0.004424559 0.0028216746 -0.004338039 0.0042395927 -0.00015126169 -0.0017212618 0.0013708319 -0.003987773 0.003287685 0.00014063064
54 -0.0027996683 -0.0030489336 0.0014920123 -0.0040251445 -0.00320868 0.003455422 -0.004733315 0.002356133 0.0036619315 0.0006102361 -0.002643866 0.001985814 -0.0007177256 -0.004431783 0.0031071752 0.0045756344 -0.0016826128 -0.0032824832 0.004529177 -0.004867346 0.00027645892 0.003968193 -0.001635816 0.0038610399 -0.0028890662 0.0027823509 0.0044738604 -0.0017706328 0.004739752 0.0026631248 0.0012743534 -0.0037904745 0.0009841216 -0.0007803906 -0.002820338 0.001093538 0.0032395655 0.004475233 0.00097339554 -0.0031745462 -0.0014216357 0.00065695634 0.00072027696 0.004330592 0.003785083 -0.0001744614 0.0012623663 0.0036483658 0.0039543677 -0.003938697 -0.0022812367 0.00336604 0.0021221447 0.004042344 0.0008445061 -0.0020213758 -0.0023976045 -0.0013997382 0.0047148336 0.0035694558 0.0029554907 -0.0027089 0.0011875886 -0.0020246143 -0.0010510464 0.0015030932 -0.004514399 0.00018589804 -0.0016393166 0.0026688837 0.00419511 -0.0026835154 0.0049156854 0.0018087039 -0.0040760846 0.0010426254 0.0041494723 0.0024465988 -0.0005279104 0.004366139 0.00042653223 -0.002437809 0.0039536506 -0.0048752003 -0.002095373 -0.0039173122 0.0043436913 -0.0018655215 0.0035508377 -0.00034412928 0.0037790127 0.0010153889 -0.003182441 0.0038632127 0.004220701 -0.00045391265 0.0007679011 -0.00075365 -2.2432301e-05 0.0049352217
55 0.0040953998 0.0010064733 0.0037016328 0.002410076 0.0026023043 -0.003233646 -0.0011036186 -0.00397031 -0.004729499 0.00032281224 0.0018463121 -0.0019197154 -0.004418201 0.0017706067 -0.0011558551 -0.00082704704 0.004126534 0.0031351428 -0.0041904002 -0.0036966447 -0.0033857543 0.0025712023 0.004648192 0.002355514 0.0049884645 0.00436809 0.0004936112 0.0018219231 0.00021286588 0.0029189987 0.0018097837 -0.0019005442 0.004419445 -0.000718398 -9.451527e-05 -0.00072755106 -0.0003160704 -0.0020278764 -0.0041426173 0.0006242185 -0.0026008391 0.0039003417 -0.0046305684 -0.00024413876 0.0004677726 -0.0037002466 -0.0037742574 0.00208899 -0.00049215835 -0.004279352 0.0027357023 -0.0044990317 0.004824632 -0.00054091634 -0.004758303 0.0037275413 -0.002169441 -0.0022731738 0.0006747013 0.0021149153 0.0006515002 0.002316224 0.0036522355 -0.0016329926 0.0049776835 -0.0049580745 0.004247645 -0.0001925691 -0.0031736707 0.0007805317 -0.002895113 0.0010208897 -0.0039318884 -0.004157908 8.075172e-05 0.0022826032 -0.0023687375 0.0027684239 0.0040765014 -0.0003921236 -2.4599489e-05 0.0045148535 -0.0018886351 0.004859999 -0.000632823 -0.0009246487 -0.003149306 -0.0036661369 0.0027297311 8.46996e-05 0.003067528 -0.00301589 0.002745987 0.0015030894 -0.0004662769 0.0007861755 -0.0034965705 -0.001906604 -0.000932585 -0.0023694425
56 0.0023105587 0.004554551 0.0016615214 0.0024165637 0.0042319223 0.0026759566 -0.0021561086 0.0047597354 -6.04908e-05 0.0028217053 0.0032438664 -0.004977161 0.0006250809 0.0012309449 -0.0013009179 -0.0015953146 0.0019029267 0.0017977152 0.0005786489 0.0042116987 -0.0029784017 0.0020985645 -0.001878066 0.0010874374 0.0047512334 -0.003943502 -0.0028919838 -0.0018331993 -0.00023988541 0.0026132995 -0.0026050538 0.004586894 -0.00015420793 -0.0038467394 -0.00014935853 6.646197e-05 -0.0035841805 -0.004717919 0.002687024 0.0013360092 0.0028588204 -0.0026067263 0.004075027 -0.0031961286 -0.003955505 -0.0010877084 -0.0040203845 0.0024318458 0.0047108103 -0.0033727158 0.0042352714 -0.00011414848 8.362299e-05 -0.00029064668 -0.00025606016 -0.0012171869 0.0010167849 -0.0038977806 0.0038442248 -0.00022425689 0.0010513132 -0.0033370284 0.0036815125 0.002620351 0.0031221984 -0.003975083 -0.0048614168 -0.0037211184 0.0041951807 -0.0022131728 -0.0013652826 0.0027830498 0.002402388 0.0031230683 0.0018517948 -0.00032249698 0.0022683553 -0.0036800688 -0.00074316934 0.001626547 -0.0037487256 -0.0021613378 0.00049754186 0.0027258247 0.0004302091 0.0034581963 0.0022643898 -0.0043581254 -0.0031471448 0.0022537862 -0.0014721637 0.0012791646 0.003689467 0.0030431282 -0.0026980871 -0.00059400126 -0.00368882 0.004404164 -0.00440792 0.002153289
57 0.004365662 0.004629352 0.0028100563 0.003054563 0.0017633932 0.004102988 -0.00025860593 -0.00045481045 -0.0012378662 -0.0017954337 -0.002255923 -0.003554964 -0.0033653546 0.0032533798 0.0028320374 0.0006486261 -0.0034552286 0.0031279642 -0.004429233 0.0025203438 0.0044800127 -0.00044591445 -0.001166678 -0.00043367036 0.0024400246 0.0007275976 -0.0042332304 -0.0019587653 -0.00035459688 0.0023504738 -0.0039753295 -0.003615986 0.0032819435 -0.0029577438 0.0038430318 0.0030598566 -0.00012206845 0.00032283133 -0.0005039866 -0.00086910883 0.001518154 0.0014258819 0.0028653042 0.0027282648 -0.0018704545 -0.004616356 0.00024310406 0.0031228838 0.002914573 -0.004716075 -0.003866556 0.004056911 0.0022191335 0.002037826 0.0034839446 0.001774251 -0.0044684457 -0.0013492792 0.0016956548 0.0035634683 -0.0003657546 0.002184581 0.00302984 0.002730234 -0.0004781778 0.0036241338 -0.003868094 -0.00058366545 -0.00022356072 -0.0028750878 0.0010794811 0.004795552 0.003232995 0.00041865697 0.0038401308 -0.0018080389 0.0022702515 -0.001637035 0.0007136427 -0.0027508603 0.003236033 -0.0025563645 -0.003630377 0.0030633826 0.003149422 0.004862109 0.0033729253 -0.0004450502 -0.0029270225 0.0018862081 0.004906087 0.004143006 -0.002349643 -0.0013352102 0.0031179935 -0.00420408 0.0012542289 -0.0018551594 -0.001094647 0.00097029936
58 -0.0036921464 -0.0022595895 -0.001216386 -0.00028688088 -0.0024493432 -0.0026469778 -0.004722406 -0.0026424516 0.0033342484 -0.002471742 0.00036350545 -0.004177671 -0.0003655441 0.0009613279 -0.0016796505 -0.00031228922 0.0021974854 0.004600249 -0.0035448843 -0.004272077 -0.00068442477 0.003785138 0.0012476379 -0.003913721 -0.0032612502 -0.0033488101 0.0018837126 -0.000572796 0.0047992943 -0.00272627 0.0013053776 -0.003728686 0.001385503 -0.0011237008 0.003645992 0.004214828 0.002007668 -0.004140219 -0.0022536356 0.0003725863 0.0010056277 -0.0026791894 -0.0041974275 -0.003512966 0.0032207193 -0.00083222985 -0.0026900368 0.002620114 -0.0017868506 -0.0040426063 0.00086453184 0.0024271584 0.0018086396 0.004041816 0.0015823753 0.004213362 0.0045139994 0.0010017818 0.0041755456 0.00483705 0.00035299174 -0.0020806384 0.0046205875 -0.0014017499 -0.0045012264 -0.0009097452 0.0046881046 -0.00410159 -0.0018355083 -0.00023585418 0.0013861763 0.0017802678 0.0029139873 -0.0017016304 -0.0041353023 0.0012617582 0.002025255 -0.0021882427 0.0006124275 0.002301137 -0.00042067096 0.0014264644 -0.004843082 0.0001851446 0.0040802304 0.0016719014 0.0041970713 0.0033072773 -0.0040449137 -0.0016122197 -0.0048056203 -0.003192324 0.0009899018 -0.0045841234 -0.0028956085 -0.0010611401 -0.0014613466 -0.0017671769 0.0042231698 0.003900717
59 -2.8626993e-05 0.00414012 0.0042200508 0.00328816 -0.004848268 -0.0042897984 -0.0020825195 -0.0019240207 -0.0013636469 0.0038116444 -0.00023877062 0.003788771 0.0020781052 -0.0023538054 0.002859151 -0.0005815346 0.004952402 -0.0010055169 0.0036703283 0.0018015075 -0.0042572287 -0.0023802198 -0.0044174986 -0.0044630393 -0.0025083595 0.0007893322 -0.0027741615 -0.0042510997 -0.0014506625 0.0013808529 0.0027077268 -0.00048180297 0.0004831832 -0.0037743426 0.00045677554 -0.00022111787 0.003694836 -0.00379112 0.004781043 -0.0035155616 -0.0016865241 -0.004661826 0.0017295359 -0.0041734283 -0.0027573274 -0.00017678691 0.001588719 0.0012781518 0.001497128 0.003243316 0.003825007 -0.002954495 -0.0030248303 0.0025737495 -0.001848076 0.0020819693 0.0047977874 -0.0032335455 -0.0018654233 0.0024388619 -0.0019289774 -0.0044580186 0.004900839 -0.0047118426 -0.0039579426 -0.0030776858 -0.0026057325 0.0043786922 0.0027296008 0.0033951504 -0.0032806443 0.0010260069 0.0005803574 -0.0007462613 -0.0036727856 0.000953048 -0.0024945312 0.0006882888 0.0035631526 -0.0017659878 0.0028829882 0.003820668 -0.0022536695 -0.0011589003 0.0045231953 -0.004395023 -0.0038285446 -0.0035586418 -0.001722852 -0.0034846282 -0.0038902604 0.0044637443 0.00030694203 0.0012330026 0.00226851 -0.0007568835 -0.0015327632 -0.00036399998 -0.004548974 0.004814571
60 -0.00047137216 0.0045445226 -0.0049922364 0.002796642 0.0013520163 0.0031473758 0.0016800403 0.0012998115 0.002980085 -0.00086523173 -0.000975417 -0.0018056827 0.00096050976 0.002981049 0.0026922743 0.0028298516 0.002116797 0.002285432 -0.0047385124 0.003522168 0.0031958614 0.0024374272 -0.0030446022 0.0032478906 -0.0035731196 0.00014880486 -0.0011868279 0.0035042865 -0.0010171044 0.0014274437 0.00067971274 -0.0011622738 0.004951359 -0.0021855182 0.0009184871 -0.0026521664 -0.0025255154 -0.0004814975 -0.0014525163 -0.00012691692 -0.0034688627 -0.0006848038 0.0047314484 0.0044740606 -0.004524263 -0.0029022633 -0.0033391302 -0.0035676528 -0.00073413504 0.004087765 0.0036801752 -0.0041064345 -0.0046564084 -0.003989962 0.003731612 -0.004489229 0.0024895347 0.0046259155 -0.004818467 0.004960425 -0.0005259961 -0.0043471777 0.0036150366 -0.0036057578 0.0023433575 0.0008745198 0.0022356296 0.004743061 0.0005862727 -0.002627579 0.004425238 -0.0048951465 0.0043937955 0.00077499915 -0.0008646967 -0.0039257198 -0.0006512897 -0.002685893 0.00018193526 -0.00021604542 -0.0037267166 -0.0024407834 0.001689109 0.0014864076 0.0040896256 -0.0030897502 -0.0035631997 -0.0035404027 -0.0047100377 -0.0014343988 -0.0030255925 -0.0007571075 0.0007035709 0.0024824631 0.0026420788 -0.0039873635 0.0018806476 0.0006275992 -0.002105894 0.0018630992
61 0.0037324773 0.000643068 -0.0021586423 -0.00028755423 -0.004100385 -0.0016417825 -0.0004416178 -0.0017051559 0.0047815405 -0.004124054 -0.0016880727 0.0048722876 -0.00044583203 0.0036344416 -0.0016363561 -0.0033654366 -0.003886187 -0.003943641 -0.0036726075 0.0042666867 0.004897721 -0.0019550794 0.0048832474 -0.0021695965 6.504776e-05 0.0022893446 -0.0016659247 0.0027748733 -0.000118004624 0.001235255 0.0020571603 -0.0048992704 -0.0043274336 0.00030085584 -0.0034732646 -0.004045417 -0.002010781 -0.00017038174 0.0012900811 0.0037932396 -0.0043540336 0.0013364037 -0.0025625324 -0.000595598 -0.00028607296 0.001454147 0.0017765085 0.0039485805 -0.0025896411 0.0028781584 -0.004276943 0.0021650884 0.0021060337 0.0023426772 0.003082511 -0.0014936614 -0.0011734928 -0.0005621975 0.00031670555 -0.0010645781 -0.0014841568 0.00055366335 0.0038456796 -0.0028001075 -0.0018330675 -0.0015880382 0.00063995365 -0.0015851122 -0.0043149367 6.951997e-05 0.0041805366 -0.0005218298 0.0010790736 0.0017991429 -0.0012575227 0.0006913352 0.0026697968 -8.540647e-05 0.0018467428 0.0016842186 0.0023387806 -0.0037815962 -0.0049347207 -0.0026166986 0.002719881 -0.004212224 -0.0036960244 -0.0022517228 -0.002389266 0.0019561797 -0.004837492 -0.00062816264 -0.004225114 -0.0006939494 0.003287129 0.00434889 -0.0008456963 0.0003214418 0.0013639401 -0.0014230127
62 0.000106466 -0.0010986875 0.0045588156 -0.0039468706 -0.0014088785 -0.0029745703 -0.0011211538 0.003194834 0.0015478712 -0.0033163696 0.0017729104 0.0024419958 0.0014360994 0.003718594 -0.0041745966 -0.0020754735 -0.0025495498 -0.0048471163 -0.004322363 -0.0035661226 -0.0017996645 0.00246746 0.00046971254 0.001560458 0.0015083961 -0.0024748193 0.0034701172 -0.00080424733 -0.0008061314 -0.004531308 -0.0027772086 0.0037915502 -0.0018670284 0.004294507 0.002103276 -0.00449054 0.00041003805 -0.001185776 -0.0033168732 0.004488374 0.0015094928 -0.00027036807 0.0019363314 -0.001001568 -0.0031418381 -0.0018367684 0.0037986217 0.0016962737 -0.0007048864 0.0010287547 0.0017656544 -0.0025989078 0.002804278 0.0023034639 0.002286191 -0.00012856117 0.0016803574 0.0018604547 -0.0026832132 -0.0029673206 0.0039524343 -0.0036389707 0.0033650175 -0.0041392553 -0.00091143 -0.0024539256 0.0031188922 0.003053411 -0.00038542505 0.0027636383 0.0038636643 -0.0038116914 -0.004337908 -0.00077702804 -0.0031568622 -0.003265818 -0.004046372 0.004070013 0.0034091007 -0.00020017568 -0.000743906 0.004661427 0.0016401736 0.0042113476 0.0043514995 0.0014433032 -0.004622656 0.00259719 -0.0017938626 0.0039385 -0.0005198689 -0.0035222284 -0.0032623014 0.004066145 -6.297184e-05 0.004648585 -0.0009214203 -0.0012645787 -0.004642681 -0.000341238
63 0.00070822425 0.00040959613 0.00092411414 0.0015189592 0.0048420625 -0.00268021 0.003511588 0.004969828 0.00064652134 0.00057309447 0.0031123972 0.0031436933 -0.0018426417 0.0009508473 -0.004656452 0.0037250165 0.0011645071 -0.00020749634 0.0017759106 -0.0012004257 -0.0024673825 -0.0032953531 -0.0015435922 0.003153 -0.00159976 0.0008330392 0.0028687632 -0.0028482557 0.000354609 -0.00089902384 0.0017055576 -0.004046062 -0.0033528046 0.003625827 0.003524213 -0.0047181956 -0.00035612658 -0.0025502336 0.004964079 0.0034833457 -0.002622957 0.001497162 0.0011854284 0.0008434076 0.0023408215 -0.0018747824 -0.0026934051 -0.0032286942 0.0037474 -0.0032942388 0.0013653194 -0.0031452859 0.00025108922 0.00018887036 -0.0029078757 0.0017599128 0.0020085396 0.0034462884 -0.0048773205 0.0009461157 -0.0025555103 0.003756524 0.0027233814 0.00030898256 7.095141e-05 0.0040394273 -0.0032404754 0.0046850005 0.00425769 -0.0020907552 0.0020015766 0.00093321456 0.0033288468 -0.0028426396 0.004691519 -0.0026946163 0.001426361 -0.0044987267 -0.0017960595 0.0027117603 -0.0009136391 -0.00032382272 0.0047809323 0.00065756496 0.003921018 0.00064159883 0.0007375218 0.0019480139 0.002151675 -0.0006938488 -0.0029354047 0.003679893 0.0009951009 0.00047655264 0.0030903472 -0.0025853056 -0.0017337578 0.0038640313 0.0014677034 -0.0016300648
64 0.0042459564 -0.0014449893 -0.0044161333 0.0028010644 -0.0041916687 0.0025663874 0.004563314 0.0024103466 0.002806534 0.002308413 -0.0017996018 -0.0039262907 0.0049893726 -0.0031022816 0.0024536294 -0.0018947709 0.0040514106 -0.004492095 0.0036562122 0.000801967 0.0015624715 0.0005069715 0.003960233 0.0013867761 0.0026672208 -0.0003636526 -0.0021210688 0.0022349954 -0.003840848 -0.0024949145 -0.0039321785 -0.0043238616 -0.0025740617 -0.0002576518 -0.003539248 0.0046307677 0.0011093314 -0.000704275 -0.0047747917 -0.002816856 -0.00080229854 -0.0017708449 0.0035025077 0.0006826096 0.0031396039 0.001999496 -0.0012625318 0.0029674442 0.0034106243 -0.0016016518 -0.0049906867 0.001203618 -0.00079118507 0.0009833812 -0.004156773 -0.0044733905 0.004634914 0.00026516197 -0.00079481816 -0.0038443177 -0.00064162444 0.0026768427 0.0020406903 -0.0013207006 -0.00073164515 0.0002009375 0.0032378528 0.0001505334 -0.00080745434 -0.0041857534 0.0025353278 -0.00094417157 -0.0046989582 0.0018807063 0.0018365984 -0.0042546876 -0.00476461 -0.0038036793 0.0007359898 0.0045810826 -6.552087e-05 0.0040466012 0.0023737303 -0.0022872305 -0.0022461526 -0.00472993 0.0017929487 -0.00044565182 0.0035034968 -0.0049858415 -0.00022134185 0.0029474543 0.004220809 -0.0006215698 -0.004487545 -0.0036226339 0.00091958 0.0015251548 -0.004346918 -0.0047174846
65 0.0024353308 0.002999165 0.003361944 0.002784124 -0.0020240236 -0.0005110251 1.841085e-05 -0.004030969 -0.0015038615 0.0004969216 0.0034686103 0.0024075145 0.0018525696 0.0039923033 -0.0036515794 -0.0022387898 0.0017449707 -0.0029881804 0.004947314 0.00024318323 -0.0016324513 0.001198783 0.0035266438 0.0020463956 0.0044326754 -0.0021024377 0.0033520432 0.00064700656 -0.004904363 0.004325629 0.0026960569 -0.002840622 0.0023898226 -0.0040020533 0.0028849356 0.00083779637 -2.5761314e-05 -0.0021905112 -0.0038125068 0.0035632774 0.00343173 0.0007874747 -0.0016004008 0.004420113 -0.002505641 0.0019358718 0.0043272236 0.003877405 -0.00035310164 -0.0038555358 0.00034494558 5.3533353e-05 0.0006153281 0.0016727187 -0.0033083975 -0.00039671222 -0.0028919165 -0.00010289438 0.0011638715 -0.00068727974 0.001416882 0.0026334329 -0.0011827159 -0.0046902704 -0.0026103954 -0.00064714486 -0.0004667146 -0.00046528876 0.0026211012 -0.0038504528 0.0022884337 -0.00095632207 -0.0045900187 -7.630605e-05 -0.00260321 0.0029621366 0.0009946995 -0.00016118586 0.0037311492 -0.003989068 -0.0046982258 0.0040352847 0.004801086 -0.0013361638 0.0037685828 -0.004125691 -0.0038340888 0.00089336466 -0.0017416507 0.00451517 -0.0029452562 0.0018831552 -0.0010892046 0.0037187748 0.0007014759 2.7645845e-05 -0.0032494566 0.0020484733 0.0013908041 0.0011840244
66 -0.0015457582 0.00012518326 0.0011878614 -0.0029899722 0.004157019 -0.0035715238 0.0030360837 0.0044252416 0.0035670502 -0.0031122915 0.0034343274 -0.0028204392 0.002106837 9.5314346e-05 0.0032745618 0.0011429801 0.0021479623 -0.0026156807 -0.0033552144 -0.004590111 -0.004165694 -0.0031714707 -0.0035945498 -0.00058491994 -0.0047983546 -0.0043740594 -0.0015738653 0.0033610286 0.00033983868 0.0022180695 0.0042543793 -0.0011224824 -0.00086746877 -0.0029396878 0.004422765 0.004932168 -0.0013524776 -0.0009575905 -0.0023419976 -0.0025585662 -0.00029376522 -0.0016989196 -0.0032311273 0.0013806401 -0.002516938 -0.001057968 -0.001660086 0.0014599077 0.004677715 0.0048615895 0.00017229654 -0.00391909 0.0016506743 -0.004232068 0.0010357662 0.004219327 -0.003400335 -0.003640158 -0.0033742301 -0.0008286722 -0.0007290961 -0.0025299222 -0.0030179285 -0.00033326074 -0.0004173303 -0.0048906566 -0.0015201366 0.0027059368 -0.003633236 -0.0040447977 -0.004111077 -0.0006876774 -0.0032712994 0.0019225911 -0.0034489427 -0.0016195923 0.0042427815 0.004693104 0.00053120917 -0.0043993 -0.0039219544 -0.0017240308 -0.003051837 0.0034437515 -0.0018554353 -0.0003489107 -0.0005862713 0.0003909422 -0.0038046734 -0.004271589 -0.00092613045 -0.0047437064 0.0010641371 0.00063751685 0.003412094 -0.00082093943 0.0031925496 -0.003518918 0.004144299 -0.00035890006
67 0.0008338904 -0.0009492757 -0.0023669337 -0.000884064 -0.0026129538 0.0034381254 0.0039840154 0.00091503 0.0011171852 -0.00015402026 0.0021618782 -0.00013147993 -0.0037220917 0.003888023 -0.0038496386 -0.0047968677 0.0032300754 -0.0038337926 0.0041816942 -0.0013641517 -0.0036158413 0.0027292762 -0.0017467188 -0.0008371598 0.0033756988 -0.0043712393 -0.00035347324 0.0036891792 0.0008931849 0.004488687 0.0013554716 0.001151476 -0.00075376825 0.00025175372 -0.0014472341 -0.0037132632 0.00046398444 -0.004028756 0.00023126742 -0.0010463814 -0.0041447543 -0.001710013 -0.0013135427 0.001257258 -0.0024695129 0.0021383194 0.002989293 0.0021759025 -0.00044646487 -0.0041331677 -0.0014935178 -0.003075949 0.0010987227 -0.00040476955 0.00041951006 0.004782741 0.0010632728 0.0035803672 0.004028911 0.0038215378 -0.003305593 0.0014816327 -0.0011073088 -0.00055706967 -0.0025451195 0.0035802247 -0.0011610675 -0.004718689 -0.0030465245 0.0009737923 -0.00032305764 -0.004634513 -0.0038457946 0.0048809545 7.401034e-05 -0.0013072861 0.002407474 -0.0040921485 -0.001953017 0.003345659 -0.0036631667 0.00050219474 -0.0030200856 -0.00456456 -0.0008230503 -0.00017479947 0.00412318 -0.0018470967 0.0021985215 -0.003093804 0.0028199805 0.00025533605 -0.0024355643 -0.0018114978 0.0021885699 -0.0016215413 -0.002912523 -0.0046123625 -0.0030717473 0.0047655217
68 0.0017931862 0.0017480869 0.0002988046 -0.00049447175 0.004308694 -0.0005055112 0.004949161 -0.0048656957 -0.0010494208 -0.00113715 0.0030445019 -0.00093361316 0.004033884 -0.0015737575 -0.0025632828 -0.0035794687 0.0049775746 -0.0007780306 0.003921968 -0.0029780143 -0.004573671 0.0035668388 -0.0011237245 0.0040416773 0.00034909323 0.0016448023 -0.0044609904 0.004761195 -0.002195055 -0.0041362057 -0.0036243384 0.0017121909 0.0010980852 0.0008269036 -0.00030142302 -0.0019424658 0.00016113278 -0.0023161005 -0.0015533131 0.0037186285 0.00053355936 -0.0039558546 -0.0021246164 0.0017689816 0.0040076245 0.004258329 0.00018474087 0.0036382517 0.0027441853 -0.0023932457 0.002303877 0.0049631326 0.0012810566 -0.0047197184 0.0018007816 -0.0003456832 0.0038249632 -0.0034742737 0.00050568534 -0.0035478002 0.002677152 -0.0010580565 0.00470082 -0.002864009 -7.095747e-05 -0.0039887205 0.000789023 0.0025493768 -0.0049021635 -0.0037217806 0.0026136576 -0.0006407611 -0.00054734247 0.0042881332 0.0033747787 0.003092857 0.0023565576 -0.0035237358 0.0015544705 -0.0028697038 -0.003554598 0.0021213852 -0.0034263318 -0.0006602411 0.0019053924 -0.0032011736 0.0009811572 0.0028679874 -0.0034841807 0.0015391852 -0.0008910531 -0.0023538612 0.0044708923 -0.00024997117 0.0026005856 0.004726762 -0.0025889617 -0.0010404564 0.0025118077 -0.0034099172
69 0.0016259439 0.0018200125 0.0023756707 0.0007670517 -0.004416155 -0.0006781076 0.00024259044 0.0013600825 -0.004245165 -0.0033520083 0.004958243 -0.004204833 0.0034140153 0.004758645 0.0014385264 -0.0032679713 0.00055331644 -0.0016826361 -0.0040410147 0.0034768693 0.0043591727 0.0009484333 -0.00493459 0.004227991 0.0015819324 0.0032797689 0.0025493102 0.002340841 -0.0016703403 -0.0027878475 0.002600615 -0.003916049 -0.00021499116 -0.0010958482 0.0024167667 -0.0043796822 0.004667501 0.003332207 -0.00073905475 -0.00039687054 -0.0018412799 -0.0033178728 -0.002528473 -0.0035605119 0.0010022158 0.003450444 -0.0041564535 0.0017044405 0.0010107504 0.0022022645 -0.0023205918 0.00052956026 -0.0021960067 0.0001863474 0.0027770228 0.0016612201 0.0049027754 -0.004659702 0.0013259249 -0.0028018558 0.001337117 -0.0039586416 0.00037261983 0.0036467202 -0.0017635124 -0.0007064999 -0.00028570695 0.004991009 -0.002199009 -0.0031044881 0.0003103125 -0.0029129314 -0.00025787903 -0.0015663237 0.0005065119 -0.0018900733 0.0031959265 -0.00422347 0.0020539095 0.002324116 0.004589378 -0.00087079825 0.0020950688 -0.0018868989 -0.0007060645 -0.004255023 -0.0016292857 0.0046356283 0.00227449 0.0016870014 -0.0022673577 -0.0009733266 -0.0001733792 -0.0038491343 -0.0034498852 0.0013780282 0.0036055865 -0.0049313507 0.0041996324 -0.0024459844
70 0.0004685386 -0.004314149 0.0041570487 -0.00217013 0.0024649198 0.0036616987 -0.0003522574 0.004533805 0.0043599326 -0.00024177134 0.0025989478 -0.0031992411 0.0029142257 0.002697532 -6.114878e-05 -0.0014474397 0.0046397606 -0.0034742747 0.0029181447 -0.0013996183 -0.0031613486 0.0022663693 0.0025261384 0.00086014625 -0.0029828744 3.186008e-05 -0.00097173033 0.004719196 0.00404236 -0.004480689 -0.003469355 0.0044871103 -0.0034436022 0.0036250167 0.0027299565 0.00047827046 0.002336036 -0.0034387093 0.004714338 -0.0018242227 -0.00020887889 0.0048626 0.0030553732 0.0019077342 0.003412433 0.0015289322 -0.00030427985 0.001796741 -0.0014006526 0.0024592965 -0.0014023429 -0.004592077 -0.0049512433 0.00027799373 -0.002234336 -0.0042975433 0.0026005683 -0.0014629341 -0.0022126662 -0.0042326557 -0.0025362927 -0.002042712 0.0039935894 0.0023225853 0.0019704252 -0.0009976504 -0.0038401913 -0.0015742623 -0.00456346 -0.002327026 -0.0016786933 0.002703363 -0.0028694898 -0.0045585884 0.004248766 0.0020062067 0.0029335646 -0.0027942061 0.00021925196 0.00015507778 -0.0013522923 0.0039573703 -0.0047917855 -0.0045583 -0.0014005685 -0.004169678 -0.0010531927 0.004559421 -0.0048152334 -0.0036613208 0.002848575 0.0018358813 0.002823852 0.0014284602 0.0005343277 -0.004181353 0.0012155836 0.004157721 -0.0035697455 6.761495e-05
71 -0.0042401925 -0.0024259018 0.00032016076 -0.0046017272 0.00043179048 0.0031702034 -0.004373106 -0.0038627256 -0.00077000214 -0.004692604 0.0032065166 -0.002893353 0.003901342 -0.0026825243 0.004943071 0.0040005157 -0.0022554211 -0.0044307644 0.002851205 0.0026574899 0.0016437969 0.00069147116 0.0018913145 0.004354423 -0.0015512514 0.0025424114 -0.0016781383 -0.0010590381 0.0039285887 -0.001291591 -0.0013393492 0.000903836 -0.0009045098 0.0033272412 0.004793535 -0.0033926861 0.0031185057 -0.003425178 -0.0019379209 -0.0035845218 0.00411216 -0.0044844775 -0.004551829 -0.0029847794 0.00442628 0.0025024135 0.0043706223 0.0026452295 -0.0027421832 -0.001297158 0.0010589235 0.001881503 0.0035616523 -0.0031184456 -0.00011510961 0.0041078636 -0.00045504468 -0.0039641038 -0.0019826859 -0.0031949924 -0.001600719 -0.0030350292 -0.0027494186 0.0015628696 0.004228483 0.0038727224 0.0038757483 0.0014071674 0.00023494614 -0.0044732443 -0.003892805 0.003111544 0.00065069785 0.0036086263 -0.0032999543 0.0009836107 -0.0043748342 -0.0018159442 -0.0020184969 -0.00023957947 0.0049290415 -0.002327383 0.0047707018 0.0033843406 0.0021060607 -0.00414352 -0.0041439026 -0.0037320703 -0.003991462 -0.0016309195 -0.00393941 -0.0017317347 0.00026973942 0.00238478 -0.0037909907 -0.000579074 0.004125501 0.0014221813 0.0023685065 -0.00048137177
72 -0.00086503336 0.003066904 -0.0007315236 -0.0023035167 -0.0010400186 0.0038435645 0.0045072623 -0.004645259 0.0024448363 0.0013436205 -0.0039750794 0.00081135985 -0.004170026 -0.0004990562 -0.00078485114 -0.0024356418 0.0016170233 0.00063483836 -0.001952443 -0.0035532885 0.0026616096 -0.0037815403 -0.0015674566 -0.0045044376 -0.0033924584 0.0032441327 -0.0039184988 0.0008847611 0.0006949012 0.0042761173 -0.0009238003 0.0008859886 -0.0014398545 0.0015331684 0.0044805743 0.0037912717 -0.00069942 -0.00087269116 0.0049241325 -0.00041255355 0.0015292419 0.0021826536 0.001027178 0.004915094 0.001701131 0.00048845727 -0.0041235983 -0.0046017976 -0.0009829663 -0.002072593 -0.0033245129 -0.0018672787 0.004036636 0.0035392474 0.002007388 -0.0046489434 0.0027694874 -0.00072889496 0.004703381 0.0022172285 -0.0031857765 0.003477566 0.0010584737 0.003466607 0.0028039897 -0.004419415 0.00465218 0.0043210424 0.0030379314 0.0019957665 -0.0046430887 -0.0028830294 -0.001006207 0.0042829076 0.0013580294 0.0039881477 -0.0034272359 -0.0034600776 -0.003835559 -0.0017489903 -0.0036167721 0.00025823573 -0.0043692016 0.0012011738 0.0041730814 -0.0024895577 0.0020002364 0.00022832444 0.0049538817 0.004150631 0.0031231074 -0.003323866 0.00306712 -0.0026942468 -0.0026655186 -0.003419076 0.0023783683 -0.0029325527 0.0014016638 0.0031929733
73 -0.00087136915 -0.0017630137 -0.0042204536 0.0016775276 0.0015488784 -0.0009455979 -0.0043242862 0.003681264 0.0049219076 0.00077411905 0.00013450626 -0.004834699 0.0025953227 0.0028472338 0.0042449823 -0.0021473002 0.0040141707 -0.004210853 0.0029312978 0.0001614932 -0.0017246567 0.0017992896 0.0037287083 0.00454787 -0.0019038504 0.001220054 -0.0026065803 -0.0031848866 0.0018167216 0.0038427403 0.0015811268 0.0028519435 0.0017590909 -0.0043575303 -0.00018363819 -0.0030165112 -0.0007425286 -0.0010306998 0.0028136242 -0.0028091047 0.0018423921 0.001720516 0.0002542357 0.004611817 0.00052358164 -0.0009833174 -0.0013404221 0.002090475 -0.0035824464 -0.0008469499 -0.0041362476 -0.002606644 -0.004109959 -0.0046946034 -0.0007398962 -0.001278 0.0009863782 -0.004379581 0.003149679 0.0035752496 -0.0046429923 0.003114746 0.0036250446 0.004147454 0.0039638095 0.0022802507 0.003034833 -0.0020336944 0.0045109494 0.004644487 -0.0036124282 -0.001989848 0.00058648037 0.0006760871 0.0007296796 0.0048281644 -0.00062048854 0.00042380858 0.0010554488 -0.00025561033 0.00233504 -0.001255986 -0.0043496876 0.0028609335 0.00044579152 -0.00015447754 0.0015643989 0.002722498 0.0007152306 -0.0039076 0.004073291 0.002788391 0.0035157725 -0.0033154439 -0.0015305346 0.00039879698 0.003349254 0.0041917404 0.0026629781 -0.001550274
