digraph Tree {
node [shape=box] ;
0 [label="X[4] <= 1.5\ngini = 0.453\nsamples = 718\nvalue = [249, 469]"] ;
1 [label="X[4] <= 0.5\ngini = 0.499\nsamples = 376\nvalue = [181, 195]"] ;
0 -> 1 [labeldistance=2.5, labelangle=45, headlabel="True"] ;
2 [label="X[8] <= 1.5\ngini = 0.42\nsamples = 120\nvalue = [36, 84]"] ;
1 -> 2 ;
3 [label="X[0] <= 1.5\ngini = 0.49\nsamples = 63\nvalue = [27, 36]"] ;
2 -> 3 ;
4 [label="gini = 0.0\nsamples = 17\nvalue = [17, 0]"] ;
3 -> 4 ;
5 [label="X[8] <= 0.5\ngini = 0.34\nsamples = 46\nvalue = [10, 36]"] ;
3 -> 5 ;
6 [label="gini = 0.0\nsamples = 15\nvalue = [0, 15]"] ;
5 -> 6 ;
7 [label="X[2] <= 1.5\ngini = 0.437\nsamples = 31\nvalue = [10, 21]"] ;
5 -> 7 ;
8 [label="X[6] <= 1.5\ngini = 0.5\nsamples = 16\nvalue = [8, 8]"] ;
7 -> 8 ;
9 [label="gini = 0.0\nsamples = 6\nvalue = [6, 0]"] ;
8 -> 9 ;
10 [label="X[3] <= 1.5\ngini = 0.32\nsamples = 10\nvalue = [2, 8]"] ;
8 -> 10 ;
11 [label="gini = 0.0\nsamples = 2\nvalue = [2, 0]"] ;
10 -> 11 ;
12 [label="gini = 0.0\nsamples = 8\nvalue = [0, 8]"] ;
10 -> 12 ;
13 [label="X[1] <= 0.5\ngini = 0.231\nsamples = 15\nvalue = [2, 13]"] ;
7 -> 13 ;
14 [label="X[6] <= 1.5\ngini = 0.444\nsamples = 3\nvalue = [2, 1]"] ;
13 -> 14 ;
15 [label="gini = 0.0\nsamples = 2\nvalue = [2, 0]"] ;
14 -> 15 ;
16 [label="gini = 0.0\nsamples = 1\nvalue = [0, 1]"] ;
14 -> 16 ;
17 [label="gini = 0.0\nsamples = 12\nvalue = [0, 12]"] ;
13 -> 17 ;
18 [label="X[6] <= 1.5\ngini = 0.266\nsamples = 57\nvalue = [9, 48]"] ;
2 -> 18 ;
19 [label="X[2] <= 1.5\ngini = 0.384\nsamples = 27\nvalue = [7, 20]"] ;
18 -> 19 ;
20 [label="gini = 0.0\nsamples = 5\nvalue = [5, 0]"] ;
19 -> 20 ;
21 [label="X[7] <= 1.5\ngini = 0.165\nsamples = 22\nvalue = [2, 20]"] ;
19 -> 21 ;
22 [label="gini = 0.0\nsamples = 17\nvalue = [0, 17]"] ;
21 -> 22 ;
23 [label="X[5] <= 1.5\ngini = 0.48\nsamples = 5\nvalue = [2, 3]"] ;
21 -> 23 ;
24 [label="gini = 0.0\nsamples = 2\nvalue = [2, 0]"] ;
23 -> 24 ;
25 [label="gini = 0.0\nsamples = 3\nvalue = [0, 3]"] ;
23 -> 25 ;
26 [label="X[5] <= 1.5\ngini = 0.124\nsamples = 30\nvalue = [2, 28]"] ;
18 -> 26 ;
27 [label="gini = 0.0\nsamples = 24\nvalue = [0, 24]"] ;
26 -> 27 ;
28 [label="X[2] <= 1.5\ngini = 0.444\nsamples = 6\nvalue = [2, 4]"] ;
26 -> 28 ;
29 [label="X[2] <= 0.5\ngini = 0.444\nsamples = 3\nvalue = [2, 1]"] ;
28 -> 29 ;
30 [label="gini = 0.0\nsamples = 1\nvalue = [0, 1]"] ;
29 -> 30 ;
31 [label="gini = 0.0\nsamples = 2\nvalue = [2, 0]"] ;
29 -> 31 ;
32 [label="gini = 0.0\nsamples = 3\nvalue = [0, 3]"] ;
28 -> 32 ;
33 [label="X[2] <= 1.5\ngini = 0.491\nsamples = 256\nvalue = [145, 111]"] ;
1 -> 33 ;
34 [label="X[6] <= 1.5\ngini = 0.453\nsamples = 130\nvalue = [85, 45]"] ;
33 -> 34 ;
35 [label="gini = 0.0\nsamples = 56\nvalue = [56, 0]"] ;
34 -> 35 ;
36 [label="X[5] <= 1.5\ngini = 0.477\nsamples = 74\nvalue = [29, 45]"] ;
34 -> 36 ;
37 [label="X[1] <= 1.5\ngini = 0.37\nsamples = 49\nvalue = [12, 37]"] ;
36 -> 37 ;
38 [label="X[2] <= 0.5\ngini = 0.213\nsamples = 33\nvalue = [4, 29]"] ;
37 -> 38 ;
39 [label="X[3] <= 1.5\ngini = 0.32\nsamples = 20\nvalue = [4, 16]"] ;
38 -> 39 ;
40 [label="X[7] <= 1.5\ngini = 0.444\nsamples = 9\nvalue = [3, 6]"] ;
39 -> 40 ;
41 [label="gini = 0.0\nsamples = 2\nvalue = [2, 0]"] ;
40 -> 41 ;
42 [label="X[8] <= 1.0\ngini = 0.245\nsamples = 7\nvalue = [1, 6]"] ;
40 -> 42 ;
43 [label="gini = 0.0\nsamples = 1\nvalue = [1, 0]"] ;
42 -> 43 ;
44 [label="gini = 0.0\nsamples = 6\nvalue = [0, 6]"] ;
42 -> 44 ;
45 [label="X[0] <= 1.5\ngini = 0.165\nsamples = 11\nvalue = [1, 10]"] ;
39 -> 45 ;
46 [label="X[8] <= 1.5\ngini = 0.375\nsamples = 4\nvalue = [1, 3]"] ;
45 -> 46 ;
47 [label="gini = 0.0\nsamples = 1\nvalue = [1, 0]"] ;
46 -> 47 ;
48 [label="gini = 0.0\nsamples = 3\nvalue = [0, 3]"] ;
46 -> 48 ;
49 [label="gini = 0.0\nsamples = 7\nvalue = [0, 7]"] ;
45 -> 49 ;
50 [label="gini = 0.0\nsamples = 13\nvalue = [0, 13]"] ;
38 -> 50 ;
51 [label="X[5] <= 0.5\ngini = 0.5\nsamples = 16\nvalue = [8, 8]"] ;
37 -> 51 ;
52 [label="X[0] <= 1.5\ngini = 0.32\nsamples = 5\nvalue = [1, 4]"] ;
51 -> 52 ;
53 [label="X[8] <= 1.5\ngini = 0.5\nsamples = 2\nvalue = [1, 1]"] ;
52 -> 53 ;
54 [label="gini = 0.0\nsamples = 1\nvalue = [1, 0]"] ;
53 -> 54 ;
55 [label="gini = 0.0\nsamples = 1\nvalue = [0, 1]"] ;
53 -> 55 ;
56 [label="gini = 0.0\nsamples = 3\nvalue = [0, 3]"] ;
52 -> 56 ;
57 [label="X[3] <= 1.5\ngini = 0.463\nsamples = 11\nvalue = [7, 4]"] ;
51 -> 57 ;
58 [label="X[3] <= 0.5\ngini = 0.278\nsamples = 6\nvalue = [5, 1]"] ;
57 -> 58 ;
59 [label="gini = 0.0\nsamples = 1\nvalue = [0, 1]"] ;
58 -> 59 ;
60 [label="gini = 0.0\nsamples = 5\nvalue = [5, 0]"] ;
58 -> 60 ;
61 [label="X[0] <= 1.5\ngini = 0.48\nsamples = 5\nvalue = [2, 3]"] ;
57 -> 61 ;
62 [label="gini = 0.0\nsamples = 2\nvalue = [2, 0]"] ;
61 -> 62 ;
63 [label="gini = 0.0\nsamples = 3\nvalue = [0, 3]"] ;
61 -> 63 ;
64 [label="X[0] <= 1.5\ngini = 0.435\nsamples = 25\nvalue = [17, 8]"] ;
36 -> 64 ;
65 [label="X[8] <= 1.5\ngini = 0.305\nsamples = 16\nvalue = [13, 3]"] ;
64 -> 65 ;
66 [label="gini = 0.0\nsamples = 9\nvalue = [9, 0]"] ;
65 -> 66 ;
67 [label="X[7] <= 1.5\ngini = 0.49\nsamples = 7\nvalue = [4, 3]"] ;
65 -> 67 ;
68 [label="gini = 0.0\nsamples = 4\nvalue = [4, 0]"] ;
67 -> 68 ;
69 [label="gini = 0.0\nsamples = 3\nvalue = [0, 3]"] ;
67 -> 69 ;
70 [label="X[3] <= 1.5\ngini = 0.494\nsamples = 9\nvalue = [4, 5]"] ;
64 -> 70 ;
71 [label="gini = 0.0\nsamples = 4\nvalue = [4, 0]"] ;
70 -> 71 ;
72 [label="gini = 0.0\nsamples = 5\nvalue = [0, 5]"] ;
70 -> 72 ;
73 [label="X[8] <= 1.5\ngini = 0.499\nsamples = 126\nvalue = [60, 66]"] ;
33 -> 73 ;
74 [label="X[0] <= 1.5\ngini = 0.475\nsamples = 67\nvalue = [41, 26]"] ;
73 -> 74 ;
75 [label="gini = 0.0\nsamples = 31\nvalue = [31, 0]"] ;
74 -> 75 ;
76 [label="X[1] <= 1.5\ngini = 0.401\nsamples = 36\nvalue = [10, 26]"] ;
74 -> 76 ;
77 [label="X[3] <= 1.5\ngini = 0.408\nsamples = 14\nvalue = [10, 4]"] ;
76 -> 77 ;
78 [label="gini = 0.0\nsamples = 8\nvalue = [8, 0]"] ;
77 -> 78 ;
79 [label="X[6] <= 1.5\ngini = 0.444\nsamples = 6\nvalue = [2, 4]"] ;
77 -> 79 ;
80 [label="gini = 0.0\nsamples = 2\nvalue = [2, 0]"] ;
79 -> 80 ;
81 [label="gini = 0.0\nsamples = 4\nvalue = [0, 4]"] ;
79 -> 81 ;
82 [label="gini = 0.0\nsamples = 22\nvalue = [0, 22]"] ;
76 -> 82 ;
83 [label="X[5] <= 1.5\ngini = 0.437\nsamples = 59\nvalue = [19, 40]"] ;
73 -> 83 ;
84 [label="X[3] <= 0.5\ngini = 0.464\nsamples = 30\nvalue = [19, 11]"] ;
83 -> 84 ;
85 [label="X[1] <= 1.5\ngini = 0.444\nsamples = 9\nvalue = [3, 6]"] ;
84 -> 85 ;
86 [label="X[7] <= 1.5\ngini = 0.5\nsamples = 6\nvalue = [3, 3]"] ;
85 -> 86 ;
87 [label="gini = 0.0\nsamples = 3\nvalue = [3, 0]"] ;
86 -> 87 ;
88 [label="gini = 0.0\nsamples = 3\nvalue = [0, 3]"] ;
86 -> 88 ;
89 [label="gini = 0.0\nsamples = 3\nvalue = [0, 3]"] ;
85 -> 89 ;
90 [label="X[5] <= 0.5\ngini = 0.363\nsamples = 21\nvalue = [16, 5]"] ;
84 -> 90 ;
91 [label="X[3] <= 1.5\ngini = 0.49\nsamples = 7\nvalue = [4, 3]"] ;
90 -> 91 ;
92 [label="X[1] <= 0.5\ngini = 0.48\nsamples = 5\nvalue = [2, 3]"] ;
91 -> 92 ;
93 [label="gini = 0.0\nsamples = 1\nvalue = [0, 1]"] ;
92 -> 93 ;
94 [label="X[7] <= 0.5\ngini = 0.5\nsamples = 4\nvalue = [2, 2]"] ;
92 -> 94 ;
95 [label="gini = 0.0\nsamples = 1\nvalue = [0, 1]"] ;
94 -> 95 ;
96 [label="X[0] <= 0.5\ngini = 0.444\nsamples = 3\nvalue = [2, 1]"] ;
94 -> 96 ;
97 [label="gini = 0.0\nsamples = 1\nvalue = [0, 1]"] ;
96 -> 97 ;
98 [label="gini = 0.0\nsamples = 2\nvalue = [2, 0]"] ;
96 -> 98 ;
99 [label="gini = 0.0\nsamples = 2\nvalue = [2, 0]"] ;
91 -> 99 ;
100 [label="X[3] <= 1.5\ngini = 0.245\nsamples = 14\nvalue = [12, 2]"] ;
90 -> 100 ;
101 [label="gini = 0.0\nsamples = 7\nvalue = [7, 0]"] ;
100 -> 101 ;
102 [label="X[0] <= 0.5\ngini = 0.408\nsamples = 7\nvalue = [5, 2]"] ;
100 -> 102 ;
103 [label="gini = 0.0\nsamples = 1\nvalue = [1, 0]"] ;
102 -> 103 ;
104 [label="X[6] <= 0.5\ngini = 0.444\nsamples = 6\nvalue = [4, 2]"] ;
102 -> 104 ;
105 [label="gini = 0.0\nsamples = 1\nvalue = [1, 0]"] ;
104 -> 105 ;
106 [label="X[7] <= 1.5\ngini = 0.48\nsamples = 5\nvalue = [3, 2]"] ;
104 -> 106 ;
107 [label="X[0] <= 1.5\ngini = 0.5\nsamples = 2\nvalue = [1, 1]"] ;
106 -> 107 ;
108 [label="gini = 0.0\nsamples = 1\nvalue = [1, 0]"] ;
107 -> 108 ;
109 [label="gini = 0.0\nsamples = 1\nvalue = [0, 1]"] ;
107 -> 109 ;
110 [label="X[6] <= 1.5\ngini = 0.444\nsamples = 3\nvalue = [2, 1]"] ;
106 -> 110 ;
111 [label="gini = 0.0\nsamples = 2\nvalue = [2, 0]"] ;
110 -> 111 ;
112 [label="gini = 0.0\nsamples = 1\nvalue = [0, 1]"] ;
110 -> 112 ;
113 [label="gini = 0.0\nsamples = 29\nvalue = [0, 29]"] ;
83 -> 113 ;
114 [label="X[6] <= 0.5\ngini = 0.319\nsamples = 342\nvalue = [68, 274]"] ;
0 -> 114 [labeldistance=2.5, labelangle=-45, headlabel="False"] ;
115 [label="X[2] <= 0.5\ngini = 0.202\nsamples = 79\nvalue = [9, 70]"] ;
114 -> 115 ;
116 [label="gini = 0.0\nsamples = 23\nvalue = [0, 23]"] ;
115 -> 116 ;
117 [label="X[2] <= 1.5\ngini = 0.27\nsamples = 56\nvalue = [9, 47]"] ;
115 -> 117 ;
118 [label="X[1] <= 1.5\ngini = 0.331\nsamples = 43\nvalue = [9, 34]"] ;
117 -> 118 ;
119 [label="X[0] <= 1.5\ngini = 0.423\nsamples = 23\nvalue = [7, 16]"] ;
118 -> 119 ;
120 [label="X[5] <= 1.5\ngini = 0.496\nsamples = 11\nvalue = [6, 5]"] ;
119 -> 120 ;
121 [label="gini = 0.0\nsamples = 4\nvalue = [4, 0]"] ;
120 -> 121 ;
122 [label="X[3] <= 1.0\ngini = 0.408\nsamples = 7\nvalue = [2, 5]"] ;
120 -> 122 ;
123 [label="gini = 0.0\nsamples = 2\nvalue = [2, 0]"] ;
122 -> 123 ;
124 [label="gini = 0.0\nsamples = 5\nvalue = [0, 5]"] ;
122 -> 124 ;
125 [label="X[8] <= 1.5\ngini = 0.153\nsamples = 12\nvalue = [1, 11]"] ;
119 -> 125 ;
126 [label="X[7] <= 1.5\ngini = 0.444\nsamples = 3\nvalue = [1, 2]"] ;
125 -> 126 ;
127 [label="gini = 0.0\nsamples = 2\nvalue = [0, 2]"] ;
126 -> 127 ;
128 [label="gini = 0.0\nsamples = 1\nvalue = [1, 0]"] ;
126 -> 128 ;
129 [label="gini = 0.0\nsamples = 9\nvalue = [0, 9]"] ;
125 -> 129 ;
130 [label="X[3] <= 1.5\ngini = 0.18\nsamples = 20\nvalue = [2, 18]"] ;
118 -> 130 ;
131 [label="gini = 0.0\nsamples = 13\nvalue = [0, 13]"] ;
130 -> 131 ;
132 [label="X[0] <= 1.5\ngini = 0.408\nsamples = 7\nvalue = [2, 5]"] ;
130 -> 132 ;
133 [label="X[7] <= 0.5\ngini = 0.278\nsamples = 6\nvalue = [1, 5]"] ;
132 -> 133 ;
134 [label="X[5] <= 1.5\ngini = 0.5\nsamples = 2\nvalue = [1, 1]"] ;
133 -> 134 ;
135 [label="gini = 0.0\nsamples = 1\nvalue = [1, 0]"] ;
134 -> 135 ;
136 [label="gini = 0.0\nsamples = 1\nvalue = [0, 1]"] ;
134 -> 136 ;
137 [label="gini = 0.0\nsamples = 4\nvalue = [0, 4]"] ;
133 -> 137 ;
138 [label="gini = 0.0\nsamples = 1\nvalue = [1, 0]"] ;
132 -> 138 ;
139 [label="gini = 0.0\nsamples = 13\nvalue = [0, 13]"] ;
117 -> 139 ;
140 [label="X[6] <= 1.5\ngini = 0.348\nsamples = 263\nvalue = [59, 204]"] ;
114 -> 140 ;
141 [label="X[2] <= 1.5\ngini = 0.413\nsamples = 134\nvalue = [39, 95]"] ;
140 -> 141 ;
142 [label="X[2] <= 0.5\ngini = 0.292\nsamples = 79\nvalue = [14, 65]"] ;
141 -> 142 ;
143 [label="X[7] <= 1.5\ngini = 0.369\nsamples = 41\nvalue = [10, 31]"] ;
142 -> 143 ;
144 [label="X[1] <= 1.5\ngini = 0.444\nsamples = 24\nvalue = [8, 16]"] ;
143 -> 144 ;
145 [label="X[3] <= 1.5\ngini = 0.245\nsamples = 14\nvalue = [2, 12]"] ;
144 -> 145 ;
146 [label="X[8] <= 1.5\ngini = 0.444\nsamples = 6\nvalue = [2, 4]"] ;
145 -> 146 ;
147 [label="gini = 0.0\nsamples = 1\nvalue = [1, 0]"] ;
146 -> 147 ;
148 [label="X[0] <= 1.5\ngini = 0.32\nsamples = 5\nvalue = [1, 4]"] ;
146 -> 148 ;
149 [label="gini = 0.0\nsamples = 1\nvalue = [1, 0]"] ;
148 -> 149 ;
150 [label="gini = 0.0\nsamples = 4\nvalue = [0, 4]"] ;
148 -> 150 ;
151 [label="gini = 0.0\nsamples = 8\nvalue = [0, 8]"] ;
145 -> 151 ;
152 [label="X[0] <= 0.5\ngini = 0.48\nsamples = 10\nvalue = [6, 4]"] ;
144 -> 152 ;
153 [label="gini = 0.0\nsamples = 2\nvalue = [2, 0]"] ;
152 -> 153 ;
154 [label="X[5] <= 0.5\ngini = 0.5\nsamples = 8\nvalue = [4, 4]"] ;
152 -> 154 ;
155 [label="gini = 0.0\nsamples = 1\nvalue = [0, 1]"] ;
154 -> 155 ;
156 [label="X[3] <= 1.5\ngini = 0.49\nsamples = 7\nvalue = [4, 3]"] ;
154 -> 156 ;
157 [label="X[5] <= 1.5\ngini = 0.375\nsamples = 4\nvalue = [3, 1]"] ;
156 -> 157 ;
158 [label="gini = 0.0\nsamples = 1\nvalue = [0, 1]"] ;
157 -> 158 ;
159 [label="gini = 0.0\nsamples = 3\nvalue = [3, 0]"] ;
157 -> 159 ;
160 [label="X[5] <= 1.5\ngini = 0.444\nsamples = 3\nvalue = [1, 2]"] ;
156 -> 160 ;
161 [label="gini = 0.0\nsamples = 1\nvalue = [1, 0]"] ;
160 -> 161 ;
162 [label="gini = 0.0\nsamples = 2\nvalue = [0, 2]"] ;
160 -> 162 ;
163 [label="X[8] <= 1.5\ngini = 0.208\nsamples = 17\nvalue = [2, 15]"] ;
143 -> 163 ;
164 [label="gini = 0.0\nsamples = 13\nvalue = [0, 13]"] ;
163 -> 164 ;
165 [label="X[5] <= 0.5\ngini = 0.5\nsamples = 4\nvalue = [2, 2]"] ;
163 -> 165 ;
166 [label="gini = 0.0\nsamples = 1\nvalue = [1, 0]"] ;
165 -> 166 ;
167 [label="X[5] <= 1.5\ngini = 0.444\nsamples = 3\nvalue = [1, 2]"] ;
165 -> 167 ;
168 [label="gini = 0.0\nsamples = 2\nvalue = [0, 2]"] ;
167 -> 168 ;
169 [label="gini = 0.0\nsamples = 1\nvalue = [1, 0]"] ;
167 -> 169 ;
170 [label="X[0] <= 0.5\ngini = 0.188\nsamples = 38\nvalue = [4, 34]"] ;
142 -> 170 ;
171 [label="gini = 0.0\nsamples = 11\nvalue = [0, 11]"] ;
170 -> 171 ;
172 [label="X[8] <= 1.5\ngini = 0.252\nsamples = 27\nvalue = [4, 23]"] ;
170 -> 172 ;
173 [label="X[8] <= 0.5\ngini = 0.397\nsamples = 11\nvalue = [3, 8]"] ;
172 -> 173 ;
174 [label="gini = 0.0\nsamples = 4\nvalue = [0, 4]"] ;
173 -> 174 ;
175 [label="X[7] <= 1.5\ngini = 0.49\nsamples = 7\nvalue = [3, 4]"] ;
173 -> 175 ;
176 [label="gini = 0.0\nsamples = 2\nvalue = [2, 0]"] ;
175 -> 176 ;
177 [label="X[1] <= 0.5\ngini = 0.32\nsamples = 5\nvalue = [1, 4]"] ;
175 -> 177 ;
178 [label="gini = 0.0\nsamples = 1\nvalue = [1, 0]"] ;
177 -> 178 ;
179 [label="gini = 0.0\nsamples = 4\nvalue = [0, 4]"] ;
177 -> 179 ;
180 [label="X[0] <= 1.5\ngini = 0.117\nsamples = 16\nvalue = [1, 15]"] ;
172 -> 180 ;
181 [label="X[3] <= 1.0\ngini = 0.444\nsamples = 3\nvalue = [1, 2]"] ;
180 -> 181 ;
182 [label="gini = 0.0\nsamples = 1\nvalue = [0, 1]"] ;
181 -> 182 ;
183 [label="X[1] <= 0.5\ngini = 0.5\nsamples = 2\nvalue = [1, 1]"] ;
181 -> 183 ;
184 [label="gini = 0.0\nsamples = 1\nvalue = [0, 1]"] ;
183 -> 184 ;
185 [label="gini = 0.0\nsamples = 1\nvalue = [1, 0]"] ;
183 -> 185 ;
186 [label="gini = 0.0\nsamples = 13\nvalue = [0, 13]"] ;
180 -> 186 ;
187 [label="X[8] <= 1.5\ngini = 0.496\nsamples = 55\nvalue = [25, 30]"] ;
141 -> 187 ;
188 [label="X[1] <= 1.5\ngini = 0.496\nsamples = 35\nvalue = [19, 16]"] ;
187 -> 188 ;
189 [label="X[3] <= 1.5\ngini = 0.401\nsamples = 18\nvalue = [13, 5]"] ;
188 -> 189 ;
190 [label="gini = 0.0\nsamples = 9\nvalue = [9, 0]"] ;
189 -> 190 ;
191 [label="X[5] <= 1.5\ngini = 0.494\nsamples = 9\nvalue = [4, 5]"] ;
189 -> 191 ;
192 [label="gini = 0.0\nsamples = 4\nvalue = [4, 0]"] ;
191 -> 192 ;
193 [label="gini = 0.0\nsamples = 5\nvalue = [0, 5]"] ;
191 -> 193 ;
194 [label="X[7] <= 1.5\ngini = 0.457\nsamples = 17\nvalue = [6, 11]"] ;
188 -> 194 ;
195 [label="X[0] <= 1.5\ngini = 0.496\nsamples = 11\nvalue = [6, 5]"] ;
194 -> 195 ;
196 [label="gini = 0.0\nsamples = 6\nvalue = [6, 0]"] ;
195 -> 196 ;
197 [label="gini = 0.0\nsamples = 5\nvalue = [0, 5]"] ;
195 -> 197 ;
198 [label="gini = 0.0\nsamples = 6\nvalue = [0, 6]"] ;
194 -> 198 ;
199 [label="X[0] <= 1.5\ngini = 0.42\nsamples = 20\nvalue = [6, 14]"] ;
187 -> 199 ;
200 [label="X[5] <= 1.5\ngini = 0.496\nsamples = 11\nvalue = [6, 5]"] ;
199 -> 200 ;
201 [label="gini = 0.0\nsamples = 6\nvalue = [6, 0]"] ;
200 -> 201 ;
202 [label="gini = 0.0\nsamples = 5\nvalue = [0, 5]"] ;
200 -> 202 ;
203 [label="gini = 0.0\nsamples = 9\nvalue = [0, 9]"] ;
199 -> 203 ;
204 [label="X[2] <= 1.5\ngini = 0.262\nsamples = 129\nvalue = [20, 109]"] ;
140 -> 204 ;
205 [label="X[2] <= 0.5\ngini = 0.43\nsamples = 64\nvalue = [20, 44]"] ;
204 -> 205 ;
206 [label="gini = 0.0\nsamples = 16\nvalue = [0, 16]"] ;
205 -> 206 ;
207 [label="X[3] <= 0.5\ngini = 0.486\nsamples = 48\nvalue = [20, 28]"] ;
205 -> 207 ;
208 [label="X[8] <= 1.5\ngini = 0.459\nsamples = 14\nvalue = [9, 5]"] ;
207 -> 208 ;
209 [label="X[1] <= 1.5\ngini = 0.198\nsamples = 9\nvalue = [8, 1]"] ;
208 -> 209 ;
210 [label="gini = 0.0\nsamples = 6\nvalue = [6, 0]"] ;
209 -> 210 ;
211 [label="X[8] <= 0.5\ngini = 0.444\nsamples = 3\nvalue = [2, 1]"] ;
209 -> 211 ;
212 [label="gini = 0.0\nsamples = 1\nvalue = [0, 1]"] ;
211 -> 212 ;
213 [label="gini = 0.0\nsamples = 2\nvalue = [2, 0]"] ;
211 -> 213 ;
214 [label="X[5] <= 1.5\ngini = 0.32\nsamples = 5\nvalue = [1, 4]"] ;
208 -> 214 ;
215 [label="gini = 0.0\nsamples = 4\nvalue = [0, 4]"] ;
214 -> 215 ;
216 [label="gini = 0.0\nsamples = 1\nvalue = [1, 0]"] ;
214 -> 216 ;
217 [label="X[0] <= 1.5\ngini = 0.438\nsamples = 34\nvalue = [11, 23]"] ;
207 -> 217 ;
218 [label="X[0] <= 0.5\ngini = 0.496\nsamples = 22\nvalue = [10, 12]"] ;
217 -> 218 ;
219 [label="X[3] <= 1.5\ngini = 0.375\nsamples = 8\nvalue = [2, 6]"] ;
218 -> 219 ;
220 [label="gini = 0.0\nsamples = 4\nvalue = [0, 4]"] ;
219 -> 220 ;
221 [label="X[5] <= 1.5\ngini = 0.5\nsamples = 4\nvalue = [2, 2]"] ;
219 -> 221 ;
222 [label="gini = 0.0\nsamples = 2\nvalue = [2, 0]"] ;
221 -> 222 ;
223 [label="gini = 0.0\nsamples = 2\nvalue = [0, 2]"] ;
221 -> 223 ;
224 [label="X[1] <= 0.5\ngini = 0.49\nsamples = 14\nvalue = [8, 6]"] ;
218 -> 224 ;
225 [label="X[5] <= 1.5\ngini = 0.375\nsamples = 4\nvalue = [1, 3]"] ;
224 -> 225 ;
226 [label="X[8] <= 1.5\ngini = 0.5\nsamples = 2\nvalue = [1, 1]"] ;
225 -> 226 ;
227 [label="gini = 0.0\nsamples = 1\nvalue = [1, 0]"] ;
226 -> 227 ;
228 [label="gini = 0.0\nsamples = 1\nvalue = [0, 1]"] ;
226 -> 228 ;
229 [label="gini = 0.0\nsamples = 2\nvalue = [0, 2]"] ;
225 -> 229 ;
230 [label="X[1] <= 1.5\ngini = 0.42\nsamples = 10\nvalue = [7, 3]"] ;
224 -> 230 ;
231 [label="gini = 0.0\nsamples = 6\nvalue = [6, 0]"] ;
230 -> 231 ;
232 [label="X[8] <= 1.5\ngini = 0.375\nsamples = 4\nvalue = [1, 3]"] ;
230 -> 232 ;
233 [label="gini = 0.0\nsamples = 2\nvalue = [0, 2]"] ;
232 -> 233 ;
234 [label="X[5] <= 1.5\ngini = 0.5\nsamples = 2\nvalue = [1, 1]"] ;
232 -> 234 ;
235 [label="gini = 0.0\nsamples = 1\nvalue = [0, 1]"] ;
234 -> 235 ;
236 [label="gini = 0.0\nsamples = 1\nvalue = [1, 0]"] ;
234 -> 236 ;
237 [label="X[1] <= 1.5\ngini = 0.153\nsamples = 12\nvalue = [1, 11]"] ;
217 -> 237 ;
238 [label="gini = 0.0\nsamples = 11\nvalue = [0, 11]"] ;
237 -> 238 ;
239 [label="gini = 0.0\nsamples = 1\nvalue = [1, 0]"] ;
237 -> 239 ;
240 [label="gini = 0.0\nsamples = 65\nvalue = [0, 65]"] ;
204 -> 240 ;
}
